booster[0]:
0:[Di_Qu_=Shang_Hai_Fen_Bu<1.5] yes=1,no=2,missing=1,gain=2243.59,cover=5250
	1:[Di_Qu_=Dong_Wan_Fen_Bu<1.5] yes=3,no=4,missing=3,gain=422.342,cover=4706
		3:[Di_Qu_=Shan_Dong_Fen_Bu<582.5] yes=7,no=8,missing=7,gain=130.114,cover=4298
			7:[Dao_Qi_Ri<533.5] yes=15,no=16,missing=15,gain=45.497,cover=1138.75
				15:leaf=-0.0893109,cover=459.75
				16:leaf=-0.130588,cover=679
			8:[Di_Qu_=Nan_Jing_Fen_Bu<0.5] yes=17,no=18,missing=17,gain=62.5967,cover=3159.25
				17:leaf=-0.156625,cover=3033
				18:leaf=-0.0836935,cover=126.25
		4:[Di_Qu_=Yun_Nan_Fen_Bu<0.5] yes=9,no=10,missing=9,gain=27.4317,cover=408
			9:[Di_Qu_=Yan_Xi_Fen_Bu<848.5] yes=19,no=20,missing=19,gain=13.2693,cover=195.5
				19:leaf=-0.0319018,cover=80.5
				20:leaf=-0.0853448,cover=115
			10:[Di_Qu_=Si_Chuan_Fen_Bu<1781] yes=21,no=22,missing=22,gain=9.15697,cover=212.5
				21:leaf=-0.0513661,cover=44.75
				22:leaf=-0.000888889,cover=167.75
	2:[Di_Qu_=Yun_Nan_Fen_Bu<0.5] yes=5,no=6,missing=6,gain=42.3787,cover=544
		5:[Dao_Qi_Ri<2325] yes=11,no=12,missing=12,gain=17.2808,cover=35.5
			11:[Sheng_Yu_Ben_Jin_(Yuan<1033.5] yes=23,no=24,missing=23,gain=5.31253,cover=23
				23:leaf=-0.0349206,cover=14.75
				24:leaf=-0.135135,cover=8.25
			12:[Dao_Qi_Ri<10254] yes=25,no=26,missing=25,gain=8.37303,cover=12.5
				25:leaf=0.112195,cover=9.25
				26:leaf=-0.0588235,cover=3.25
		6:[Di_Qu_=Ji_Lin_Fen_Bu<0.5] yes=13,no=14,missing=13,gain=20.595,cover=508.5
			13:[Li_Shi_Yu_Qi_Ci_Shu<4.5] yes=27,no=28,missing=28,gain=10.9272,cover=293.75
				27:leaf=0.072399,cover=289.75
				28:leaf=-0.08,cover=4
			14:[Di_Qu_=Shan_Dong_Fen_Bu<12150] yes=29,no=30,missing=29,gain=13.4286,cover=214.75
				29:leaf=0.115439,cover=209.5
				30:leaf=-0.04,cover=5.25
booster[1]:
0:[Di_Qu_=Shang_Hai_Fen_Bu<1.5] yes=1,no=2,missing=1,gain=1827.55,cover=5226.03
	1:[Di_Qu_=Dong_Wan_Fen_Bu<1.5] yes=3,no=4,missing=3,gain=346.414,cover=4683.19
		3:[Di_Qu_=An_Hui_Fen_Bu<1350.5] yes=7,no=8,missing=7,gain=116.362,cover=4275.45
			7:[Di_Qu_=Shan_Xi_Fen_Bu<931.5] yes=15,no=16,missing=15,gain=33.0004,cover=1399.25
				15:leaf=-0.0952124,cover=963.273
				16:leaf=-0.128897,cover=435.98
			8:[Di_Qu_=Bei_Jing_Fen_Bu<0] yes=17,no=18,missing=17,gain=59.5983,cover=2876.2
				17:leaf=-0.144514,cover=2732.24
				18:leaf=-0.0776232,cover=143.955
		4:[Di_Qu_=Bei_Jing_Fen_Bu<0.5] yes=9,no=10,missing=9,gain=22.7429,cover=407.741
			9:[Di_Qu_=Yan_Xi_Fen_Bu<848.5] yes=19,no=20,missing=19,gain=16.7422,cover=264.261
				19:leaf=-0.0219048,cover=116.972
				20:leaf=-0.0727649,cover=147.289
			10:[Sheng_Yu_Ben_Jin_(Yuan<1350] yes=21,no=22,missing=22,gain=12.4253,cover=143.48
				21:leaf=-0.128619,cover=6.24743
				22:leaf=0.00570714,cover=137.233
	2:[Di_Qu_=Yun_Nan_Fen_Bu<0.5] yes=5,no=6,missing=6,gain=34.6372,cover=542.842
		5:[Dao_Qi_Ri<2325] yes=11,no=12,missing=12,gain=14.2712,cover=35.4261
			11:[Sheng_Yu_Ben_Jin_(Yuan<1033.5] yes=23,no=24,missing=23,gain=4.46488,cover=22.958
				23:leaf=-0.0316597,cover=14.7455
				24:leaf=-0.123603,cover=8.21245
			12:[Li_Lu_Lei_Xing_=Gu_Ding<30.5] yes=25,no=26,missing=25,gain=8.16902,cover=12.4681
				25:leaf=-0.0417355,cover=4.48871
				26:leaf=0.116323,cover=7.97943
		6:[Di_Qu_=Ji_Lin_Fen_Bu<0.5] yes=13,no=14,missing=13,gain=16.907,cover=507.416
			13:[Li_Shi_Yu_Qi_Ci_Shu<3.5] yes=27,no=28,missing=28,gain=9.14625,cover=293.364
				27:leaf=0.0653972,cover=288.871
				28:leaf=-0.0676568,cover=4.49295
			14:[Di_Qu_=Shan_Dong_Fen_Bu<12150] yes=29,no=30,missing=29,gain=11.0462,cover=214.051
				29:leaf=0.104308,cover=208.804
				30:leaf=-0.0366528,cover=5.2479
booster[2]:
0:[Di_Qu_=Shang_Hai_Fen_Bu<1.5] yes=1,no=2,missing=1,gain=1502.54,cover=5164.33
	1:[Di_Qu_=Dong_Wan_Fen_Bu<1.5] yes=3,no=4,missing=3,gain=290.233,cover=4624.48
		3:[Di_Qu_=An_Hui_Fen_Bu<1350.5] yes=7,no=8,missing=7,gain=99.9092,cover=4217.38
			7:[Di_Qu_=Bei_Jing_Fen_Bu<0.5] yes=15,no=16,missing=15,gain=29.0972,cover=1385.83
				15:leaf=-0.0994928,cover=1317.86
				16:leaf=-0.0318098,cover=67.9628
			8:[Di_Qu_=Bei_Jing_Fen_Bu<0] yes=17,no=18,missing=17,gain=50.7619,cover=2831.55
				17:leaf=-0.132289,cover=2688.49
				18:leaf=-0.0703677,cover=143.066
		4:[Di_Qu_=Yun_Nan_Fen_Bu<0.5] yes=9,no=10,missing=9,gain=18.9952,cover=407.098
			9:[Di_Qu_=Nan_Jing_Fen_Bu<0.5] yes=19,no=20,missing=19,gain=10.0265,cover=194.72
				19:leaf=-0.0613818,cover=167.831
				20:leaf=0.0042146,cover=26.8893
			10:[He_Tong_Li_Lu<75000] yes=21,no=22,missing=21,gain=7.6218,cover=212.378
				21:leaf=0.00743647,cover=120.435
				22:leaf=-0.0306328,cover=91.9431
	2:[Di_Qu_=Yun_Nan_Fen_Bu<0.5] yes=5,no=6,missing=6,gain=28.3898,cover=539.854
		5:[Dao_Qi_Ri<2325] yes=11,no=12,missing=12,gain=11.8623,cover=35.2606
			11:[Di_Qu_=Yan_Dong_Fen_Bu<22522.5] yes=23,no=24,missing=24,gain=4.10375,cover=22.8471
				23:leaf=-0.0904438,cover=15.3902
				24:leaf=-0.00084723,cover=7.45695
			12:[Dao_Qi_Ri<10254] yes=25,no=26,missing=25,gain=7.00934,cover=12.4135
				25:leaf=0.0974195,cover=9.16831
				26:leaf=-0.0586398,cover=3.24519
		6:[Di_Qu_=Ji_Lin_Fen_Bu<0.5] yes=13,no=14,missing=13,gain=14.1385,cover=504.593
			13:[Li_Shi_Yu_Qi_Ci_Shu<4.5] yes=27,no=28,missing=28,gain=7.63129,cover=292.36
				27:leaf=0.058989,cover=288.381
				28:leaf=-0.0685065,cover=3.97828
			14:[Di_Qu_=Shan_Dong_Fen_Bu<12150] yes=29,no=30,missing=29,gain=9.15749,cover=212.233
				29:leaf=0.0947864,cover=206.991
				30:leaf=-0.0336057,cover=5.2423
booster[3]:
0:[Di_Qu_=Shang_Hai_Fen_Bu<1.5] yes=1,no=2,missing=1,gain=1243.64,cover=5076.45
	1:[Di_Qu_=Dong_Wan_Fen_Bu<1.5] yes=3,no=4,missing=3,gain=247.279,cover=4540.86
		3:[Di_Qu_=Shan_Dong_Fen_Bu<678.5] yes=7,no=8,missing=7,gain=90.3738,cover=4134.56
			7:[Dao_Qi_Ri<-107.5] yes=15,no=16,missing=15,gain=40.2603,cover=1163.88
				15:leaf=-0.0529386,cover=297.03
				16:leaf=-0.0959193,cover=866.851
			8:[He_Tong_Li_Lu<145000] yes=17,no=18,missing=17,gain=56.5068,cover=2970.68
				17:leaf=-0.102884,cover=1362.85
				18:leaf=-0.130892,cover=1607.83
		4:[Di_Qu_=Bei_Jing_Fen_Bu<0.5] yes=9,no=10,missing=9,gain=15.9609,cover=406.307
			9:[Di_Qu_=Yan_Xi_Fen_Bu<848.5] yes=19,no=20,missing=19,gain=13.5928,cover=262.893
				19:leaf=-0.0159111,cover=116.736
				20:leaf=-0.0617861,cover=146.157
			10:[Sheng_Yu_Ben_Jin_(Yuan<1053] yes=21,no=22,missing=22,gain=10.3368,cover=143.414
				21:leaf=-0.12385,cover=5.45107
				22:leaf=0.00563871,cover=137.963
	2:[Di_Qu_=Yun_Nan_Fen_Bu<0.5] yes=5,no=6,missing=6,gain=23.3036,cover=535.589
		5:[Dao_Qi_Ri<649] yes=11,no=12,missing=12,gain=10.7098,cover=35.0317
			11:[Dao_Qi_Ri<534] yes=23,no=24,missing=24,gain=3.41768,cover=9.88537
				23:leaf=-0.0301778,cover=4.70791
				24:leaf=-0.151502,cover=5.17745
			12:[Dao_Qi_Ri<703.5] yes=25,no=26,missing=25,gain=7.95153,cover=25.1464
				25:leaf=0.0662547,cover=13.5536
				26:leaf=-0.0424491,cover=11.5928
		6:[Di_Qu_=Ji_Lin_Fen_Bu<0.5] yes=13,no=14,missing=13,gain=11.9793,cover=500.558
			13:[Li_Shi_Yu_Qi_Ci_Shu<3.5] yes=27,no=28,missing=28,gain=6.40364,cover=290.921
				27:leaf=0.0534887,cover=286.468
				28:leaf=-0.0581419,cover=4.45313
			14:[Di_Qu_=Shan_Dong_Fen_Bu<12150] yes=29,no=30,missing=29,gain=7.63393,cover=209.637
				29:leaf=0.0864852,cover=204.403
				30:leaf=-0.0308262,cover=5.23408
booster[4]:
0:[Di_Qu_=Shang_Hai_Fen_Bu<1.5] yes=1,no=2,missing=1,gain=1034.17,cover=4971.37
	1:[Di_Qu_=Dong_Wan_Fen_Bu<1.5] yes=3,no=4,missing=3,gain=212.682,cover=4440.82
		3:[Di_Qu_=Shan_Xi_Fen_Bu<930.5] yes=7,no=8,missing=7,gain=86.0262,cover=4035.64
			7:[Di_Qu_=Yun_Nan_Fen_Bu<0] yes=15,no=16,missing=15,gain=51.0061,cover=1492.14
				15:leaf=-0.0860215,cover=1399.5
				16:leaf=-0.00929953,cover=92.6429
			8:[He_Tong_Li_Lu<75000] yes=17,no=18,missing=17,gain=44.2843,cover=2543.5
				17:leaf=-0.0866268,cover=565.051
				18:leaf=-0.118789,cover=1978.45
		4:[Di_Qu_=Ji_Lin_Fen_Bu<0.5] yes=9,no=10,missing=9,gain=13.264,cover=405.178
			9:[Di_Qu_=Shan_Dong_Fen_Bu<954] yes=19,no=20,missing=19,gain=13.232,cover=291.774
				19:leaf=-0.00901816,cover=114.482
				20:leaf=-0.0526761,cover=177.292
			10:[Di_Qu_=Yan_Xi_Fen_Bu<459.5] yes=21,no=22,missing=22,gain=6.41126,cover=113.404
				21:leaf=-0.0961507,cover=4.99364
				22:leaf=0.0100871,cover=108.41
	2:[Di_Qu_=Yun_Nan_Fen_Bu<0.5] yes=5,no=6,missing=6,gain=19.3556,cover=530.551
		5:[Dao_Qi_Ri<649] yes=11,no=12,missing=12,gain=9.08239,cover=34.8357
			11:[Sheng_Yu_Ben_Jin_(Yuan<180] yes=23,no=24,missing=24,gain=3.04804,cover=9.76013
				23:leaf=0.031733,cover=1.2407
				24:leaf=-0.11423,cover=8.51943
			12:[Di_Qu_=Yan_Dong_Fen_Bu<28074] yes=25,no=26,missing=26,gain=7.19123,cover=25.0755
				25:leaf=-0.0318174,cover=14.0343
				26:leaf=0.0720453,cover=11.0413
		6:[Di_Qu_=Ji_Lin_Fen_Bu<0.5] yes=13,no=14,missing=13,gain=10.2373,cover=495.715
			13:[Li_Shi_Yu_Qi_Ci_Shu<4.5] yes=27,no=28,missing=28,gain=5.37271,cover=289.193
				27:leaf=0.0483747,cover=285.267
				28:leaf=-0.0590701,cover=3.92569
			14:[Di_Qu_=Dong_Wan_Fen_Bu<3.5] yes=29,no=30,missing=29,gain=6.70638,cover=206.522
				29:leaf=0.0806579,cover=194.992
				30:leaf=0.00200507,cover=11.5302
booster[5]:
0:[Di_Qu_=Shang_Hai_Fen_Bu<1.5] yes=1,no=2,missing=1,gain=863.197,cover=4856.2
	1:[Di_Qu_=Shang_Hai_Fen_Bu<0] yes=3,no=4,missing=3,gain=189.542,cover=4331.1
		3:[Di_Qu_=Yun_Nan_Fen_Bu<0.5] yes=7,no=8,missing=7,gain=77.9763,cover=3694.61
			7:[Di_Qu_=Si_Chuan_Fen_Bu<1923.5] yes=15,no=16,missing=15,gain=64.1721,cover=3464.44
				15:leaf=-0.0812174,cover=1305.25
				16:leaf=-0.109508,cover=2159.19
			8:[Di_Qu_=Shan_Xi_Fen_Bu<757.5] yes=17,no=18,missing=17,gain=19.1656,cover=230.174
				17:leaf=-0.00399783,cover=94.901
				18:leaf=-0.0625741,cover=135.273
		4:[Di_Qu_=Bei_Jing_Fen_Bu<0] yes=9,no=10,missing=9,gain=33.9812,cover=636.492
			9:[Dao_Qi_Ri<11361.5] yes=19,no=20,missing=20,gain=17.1209,cover=493.34
				19:leaf=-0.0762034,cover=152.694
				20:leaf=-0.0357418,cover=340.647
			10:[Di_Qu_=An_Hui_Fen_Bu<3311] yes=21,no=22,missing=21,gain=7.9451,cover=143.151
				21:leaf=0.0219774,cover=101.346
				22:leaf=-0.0293448,cover=41.805
	2:[Di_Qu_=Yun_Nan_Fen_Bu<0.5] yes=5,no=6,missing=6,gain=15.9495,cover=525.091
		5:[Dao_Qi_Ri<2325] yes=11,no=12,missing=12,gain=7.9171,cover=34.5619
			11:[Di_Qu_=Shan_Xi_Fen_Bu<1042] yes=23,no=24,missing=23,gain=3.82428,cover=22.3897
				23:leaf=-0.0226732,cover=16.4332
				24:leaf=-0.113138,cover=5.95652
			12:[Li_Lu_Lei_Xing_=Gu_Ding<30.5] yes=25,no=26,missing=25,gain=6.79278,cover=12.1721
				25:leaf=-0.0457925,cover=4.43704
				26:leaf=0.0986738,cover=7.73509
		6:[Di_Qu_=Ji_Lin_Fen_Bu<0.5] yes=13,no=14,missing=13,gain=8.77608,cover=490.53
			13:[Di_Qu_=Shan_Dong_Fen_Bu<1350] yes=27,no=28,missing=28,gain=5.33213,cover=287.286
				27:leaf=0.0188251,cover=73.8372
				28:leaf=0.0503424,cover=213.448
			14:[Di_Qu_=Shan_Dong_Fen_Bu<12150] yes=29,no=30,missing=29,gain=6.54611,cover=203.244
				29:leaf=0.0728117,cover=197.999
				30:leaf=-0.0349525,cover=5.24521
booster[6]:
0:[Di_Qu_=Shang_Hai_Fen_Bu<1.5] yes=1,no=2,missing=1,gain=722.275,cover=4735.2
	1:[Di_Qu_=Shang_Hai_Fen_Bu<0] yes=3,no=4,missing=3,gain=166.359,cover=4215.9
		3:[He_Tong_Li_Lu<75000] yes=7,no=8,missing=7,gain=71.4819,cover=3584.45
			7:[Di_Qu_=Yun_Nan_Fen_Bu<0.5] yes=15,no=16,missing=15,gain=32.1462,cover=988.295
				15:leaf=-0.0716691,cover=881.051
				16:leaf=-0.0135439,cover=107.244
			8:[Dao_Qi_Ri<2779.5] yes=17,no=18,missing=17,gain=49.4092,cover=2596.15
				17:leaf=-0.0726564,cover=635.166
				18:leaf=-0.105031,cover=1960.98
		4:[Di_Qu_=Bei_Jing_Fen_Bu<0] yes=9,no=10,missing=9,gain=28.0093,cover=631.452
			9:[Dao_Qi_Ri<11361.5] yes=19,no=20,missing=20,gain=14.5386,cover=488.303
				19:leaf=-0.0699581,cover=149.929
				20:leaf=-0.0324054,cover=338.374
			10:[Di_Qu_=Yan_Xi_Fen_Bu<1232] yes=21,no=22,missing=22,gain=8.02313,cover=143.149
				21:leaf=-0.0343016,cover=35.6602
				22:leaf=0.0198226,cover=107.489
	2:[Dao_Qi_Ri<568] yes=5,no=6,missing=6,gain=14.2182,cover=519.306
		5:[Sheng_Yu_Li_Xi_(Yuan<667.5] yes=11,no=12,missing=12,gain=5.44084,cover=18.7669
			11:[Di_Qu_=Si_Chuan_Fen_Bu<7776] yes=23,no=24,missing=24,gain=3.18304,cover=10.4987
				23:leaf=-0.0474823,cover=4.59186
				24:leaf=0.0541411,cover=5.90679
			12:[Dao_Qi_Ri<655] yes=25,no=26,missing=25,gain=1.46389,cover=8.2682
				25:leaf=-0.131583,cover=4.26235
				26:leaf=-0.0373773,cover=4.00585
		6:[Di_Qu_=Ji_Lin_Fen_Bu<0.5] yes=13,no=14,missing=13,gain=8.75082,cover=500.539
			13:[Li_Shi_Zui_Chang_Yu_Qi_Tian_Shu<29806.5] yes=27,no=28,missing=28,gain=6.08965,cover=304.585
				27:leaf=0.021754,cover=140.836
				28:leaf=0.0503391,cover=163.748
			14:[Di_Qu_=Shang_Hai_Fen_Bu<4.5] yes=29,no=30,missing=30,gain=5.9865,cover=195.954
				29:leaf=0.0681185,cover=188.39
				30:leaf=-0.0202769,cover=7.56372
booster[7]:
0:[Di_Qu_=Shang_Hai_Fen_Bu<0] yes=1,no=2,missing=1,gain=611.155,cover=4612.96
	1:[He_Tong_Li_Lu<145000] yes=3,no=4,missing=3,gain=68.2842,cover=3472.77
		3:[Di_Qu_=Bei_Jing_Fen_Bu<0.5] yes=7,no=8,missing=7,gain=48.5857,cover=1653.43
			7:[Di_Qu_=Dong_Wan_Fen_Bu<0.5] yes=15,no=16,missing=15,gain=33.3414,cover=1513.61
				15:leaf=-0.0749572,cover=1479.01
				16:leaf=0.0237556,cover=34.5944
			8:[Di_Qu_=Shan_Dong_Fen_Bu<782] yes=17,no=18,missing=18,gain=10.3532,cover=139.829
				17:leaf=-0.0915669,cover=13.3257
				18:leaf=-0.00185425,cover=126.503
		4:[Dao_Qi_Ri<3629.5] yes=9,no=10,missing=9,gain=43.6321,cover=1819.33
			9:[Dao_Qi_Ri<-107.5] yes=19,no=20,missing=19,gain=13.811,cover=594.909
				19:leaf=-0.0365179,cover=89.943
				20:leaf=-0.0796573,cover=504.966
			10:[Dao_Qi_Ri<226343] yes=21,no=22,missing=22,gain=17.9839,cover=1224.42
				21:leaf=-0.110649,cover=1100.99
				22:leaf=-0.0692975,cover=123.431
	2:[Di_Qu_=Shang_Hai_Fen_Bu<1.5] yes=5,no=6,missing=6,gain=140.541,cover=1140.19
		5:[Di_Qu_=Bei_Jing_Fen_Bu<0] yes=11,no=12,missing=11,gain=23.0901,cover=626.408
			11:[Di_Qu_=Shan_Xi_Fen_Bu<75.5] yes=23,no=24,missing=23,gain=13.3935,cover=483.242
				23:leaf=-0.0215828,cover=217.748
				24:leaf=-0.0551719,cover=265.494
			12:[Li_Lu_Lei_Xing_=Gu_Ding<43.5] yes=25,no=26,missing=25,gain=7.48793,cover=143.166
				25:leaf=-0.0061578,cover=113.797
				26:leaf=0.0496922,cover=29.3689
		6:[Dao_Qi_Ri<568] yes=13,no=14,missing=14,gain=11.9106,cover=513.786
			13:[Dao_Qi_Ri<1649.5] yes=27,no=28,missing=28,gain=4.88213,cover=18.5791
				27:leaf=-0.000703889,cover=12.997
				28:leaf=-0.106464,cover=5.58208
			14:[Di_Qu_=Ji_Lin_Fen_Bu<0.5] yes=29,no=30,missing=29,gain=7.51188,cover=495.207
				29:leaf=0.0337557,cover=302.715
				30:leaf=0.059285,cover=192.492
booster[8]:
0:[Di_Qu_=Shang_Hai_Fen_Bu<0] yes=1,no=2,missing=1,gain=522.377,cover=4490.85
	1:[Di_Qu_=Yun_Nan_Fen_Bu<0.5] yes=3,no=4,missing=3,gain=63.3682,cover=3360.65
		3:[Di_Qu_=Si_Chuan_Fen_Bu<1923.5] yes=7,no=8,missing=7,gain=56.9966,cover=3140.15
			7:[Di_Qu_=Shan_Xi_Fen_Bu<2188.5] yes=15,no=16,missing=15,gain=15.7133,cover=1208.89
				15:leaf=-0.0580129,cover=1010.71
				16:leaf=-0.0891287,cover=198.176
			8:[He_Tong_Li_Lu<145000] yes=17,no=18,missing=17,gain=21.8146,cover=1931.26
				17:leaf=-0.078067,cover=797.358
				18:leaf=-0.100047,cover=1133.9
		4:[Di_Qu_=Shan_Xi_Fen_Bu<807] yes=9,no=10,missing=9,gain=15.0772,cover=220.498
			9:[Dao_Qi_Ri<16840] yes=19,no=20,missing=20,gain=5.88013,cover=95.773
				19:leaf=0.0203938,cover=69.3043
				20:leaf=-0.0341805,cover=26.4687
			10:[Di_Qu_=Si_Chuan_Fen_Bu<85.5] yes=21,no=22,missing=21,gain=9.51304,cover=124.725
				21:leaf=0.0571822,cover=7.35881
				22:leaf=-0.0544926,cover=117.366
	2:[Di_Qu_=Shang_Hai_Fen_Bu<1.5] yes=5,no=6,missing=6,gain=115.055,cover=1130.2
		5:[Di_Qu_=Nan_Jing_Fen_Bu<0.5] yes=11,no=12,missing=11,gain=19.8326,cover=621.741
			11:[Di_Qu_=Yan_Xi_Fen_Bu<7710.5] yes=23,no=24,missing=23,gain=14.8275,cover=501.271
				23:leaf=-0.0309804,cover=468.458
				24:leaf=-0.0998372,cover=32.813
			12:[Di_Qu_=Yan_Dong_Fen_Bu<2675] yes=25,no=26,missing=26,gain=11.3309,cover=120.471
				25:leaf=-0.0263044,cover=50.6009
				26:leaf=0.0353208,cover=69.87
		6:[Di_Qu_=Yun_Nan_Fen_Bu<0.5] yes=13,no=14,missing=14,gain=10.7614,cover=508.463
			13:[Sheng_Yu_Ben_Jin_(Yuan<180] yes=27,no=28,missing=27,gain=5.96617,cover=33.9023
				27:leaf=0.0351963,cover=12.8378
				28:leaf=-0.048756,cover=21.0645
			14:[Li_Shi_Yu_Qi_Ci_Shu<3.5] yes=29,no=30,missing=30,gain=6.40368,cover=474.561
				29:leaf=0.0422337,cover=469.86
				30:leaf=-0.0657771,cover=4.70122
booster[9]:
0:[Di_Qu_=Shang_Hai_Fen_Bu<0] yes=1,no=2,missing=1,gain=446.741,cover=4371
	1:[He_Tong_Li_Lu<145000] yes=3,no=4,missing=3,gain=59.3004,cover=3250.54
		3:[Di_Qu_=Nan_Jing_Fen_Bu<0.5] yes=7,no=8,missing=7,gain=41.3882,cover=1568.05
			7:[Di_Qu_=An_Hui_Fen_Bu<1350.5] yes=15,no=16,missing=15,gain=26.0818,cover=1454.95
				15:leaf=-0.0429525,cover=487.715
				16:leaf=-0.0714985,cover=967.239
			8:[Di_Qu_=Shan_Dong_Fen_Bu<1323.5] yes=17,no=18,missing=18,gain=5.41946,cover=113.095
				17:leaf=-0.0468772,cover=18.7367
				18:leaf=0.0106923,cover=94.3579
		4:[Dao_Qi_Ri<6516] yes=9,no=10,missing=9,gain=40.3791,cover=1682.49
			9:[Dao_Qi_Ri<6130.5] yes=19,no=20,missing=20,gain=11.7928,cover=644.651
				19:leaf=-0.0705722,cover=543.344
				20:leaf=-0.0329174,cover=101.307
			10:[Dao_Qi_Ri<131891] yes=21,no=22,missing=22,gain=22.0924,cover=1037.84
				21:leaf=-0.10738,cover=687.427
				22:leaf=-0.075918,cover=350.416
	2:[Di_Qu_=Shang_Hai_Fen_Bu<1.5] yes=5,no=6,missing=6,gain=94.2123,cover=1120.46
		5:[Di_Qu_=Bei_Jing_Fen_Bu<0] yes=11,no=12,missing=11,gain=16.644,cover=617.287
			11:[Dao_Qi_Ri<11361.5] yes=23,no=24,missing=24,gain=12.7838,cover=474.23
				23:leaf=-0.0582921,cover=143.711
				24:leaf=-0.0225135,cover=330.519
			12:[Di_Qu_=An_Hui_Fen_Bu<3311] yes=25,no=26,missing=25,gain=6.86419,cover=143.057
				25:leaf=0.0194437,cover=101.305
				26:leaf=-0.0282796,cover=41.7516
		6:[Di_Qu_=Si_Chuan_Fen_Bu<604] yes=13,no=14,missing=14,gain=9.49393,cover=503.174
			13:[Dao_Qi_Ri<29148] yes=27,no=28,missing=28,gain=5.57884,cover=18.0097
				27:leaf=-0.0766557,cover=11.2609
				28:leaf=0.0329311,cover=6.74884
			14:[Di_Qu_=Ji_Lin_Fen_Bu<0.5] yes=29,no=30,missing=29,gain=7.14358,cover=485.164
				29:leaf=0.026686,cover=298.1
				30:leaf=0.0517892,cover=187.064
booster[10]:
0:[Di_Qu_=Shang_Hai_Fen_Bu<0] yes=1,no=2,missing=1,gain=382.029,cover=4255.71
	1:[He_Tong_Li_Lu<75000] yes=3,no=4,missing=3,gain=55.6941,cover=3144.92
		3:[Di_Qu_=Yun_Nan_Fen_Bu<0.5] yes=7,no=8,missing=7,gain=21.2935,cover=898.35
			7:[Di_Qu_=Nan_Jing_Fen_Bu<0.5] yes=15,no=16,missing=15,gain=15.0069,cover=794.576
				15:leaf=-0.0545648,cover=746.716
				16:leaf=0.00313189,cover=47.8607
			8:[Di_Qu_=An_Hui_Fen_Bu<1462.5] yes=17,no=18,missing=18,gain=9.65206,cover=103.773
				17:leaf=-0.0609429,cover=21.5278
				18:leaf=0.0128435,cover=82.2457
		4:[Dao_Qi_Ri<2903] yes=9,no=10,missing=9,gain=42.7138,cover=2246.57
			9:[Di_Qu_=Shan_Xi_Fen_Bu<2053.5] yes=19,no=20,missing=19,gain=15.3787,cover=585.051
				19:leaf=-0.0424835,cover=446.316
				20:leaf=-0.0808164,cover=138.735
			10:[Di_Qu_=Ji_Lin_Fen_Bu<0.5] yes=21,no=22,missing=21,gain=32.9531,cover=1661.52
				21:leaf=-0.0864472,cover=1582.45
				22:leaf=-0.0200038,cover=79.0684
	2:[Di_Qu_=Shang_Hai_Fen_Bu<1.5] yes=5,no=6,missing=6,gain=77.1779,cover=1110.79
		5:[Di_Qu_=Nan_Jing_Fen_Bu<0.5] yes=11,no=12,missing=11,gain=14.3972,cover=612.621
			11:[Di_Qu_=Shan_Dong_Fen_Bu<539.5] yes=23,no=24,missing=23,gain=13.9118,cover=492.375
				23:leaf=-0.0137628,cover=259.468
				24:leaf=-0.047468,cover=232.907
			12:[Di_Qu_=Yan_Dong_Fen_Bu<2675] yes=25,no=26,missing=26,gain=9.18423,cover=120.246
				25:leaf=-0.0235059,cover=50.404
				26:leaf=0.0320429,cover=69.842
		6:[Dao_Qi_Ri<568] yes=13,no=14,missing=14,gain=8.61161,cover=498.168
			13:[Sheng_Yu_Li_Xi_(Yuan<667.5] yes=27,no=28,missing=28,gain=4.20366,cover=18.1637
				27:leaf=0.00786443,cover=10.1762
				28:leaf=-0.08529,cover=7.98754
			14:[Di_Qu_=Yan_Dong_Fen_Bu<10101] yes=29,no=30,missing=29,gain=6.81152,cover=480.005
				29:leaf=0.0359399,cover=457.857
				30:leaf=-0.0201082,cover=22.1474
booster[11]:
0:[Di_Qu_=Shang_Hai_Fen_Bu<0] yes=1,no=2,missing=1,gain=326.595,cover=4145.57
	1:[He_Tong_Li_Lu<145000] yes=3,no=4,missing=3,gain=51.9626,cover=3043.55
		3:[Di_Qu_=Bei_Jing_Fen_Bu<0.5] yes=7,no=8,missing=7,gain=36.2264,cover=1489.02
			7:[Di_Qu_=Dong_Wan_Fen_Bu<0.5] yes=15,no=16,missing=15,gain=27.2177,cover=1354.78
				15:leaf=-0.0559003,cover=1320.93
				16:leaf=0.0341005,cover=33.8516
			8:[Di_Qu_=Shan_Dong_Fen_Bu<782] yes=17,no=18,missing=18,gain=8.65774,cover=134.246
				17:leaf=-0.0758491,cover=12.2924
				18:leaf=0.00910666,cover=121.954
		4:[Dao_Qi_Ri<3799] yes=9,no=10,missing=9,gain=38.4429,cover=1554.53
			9:[Dao_Qi_Ri<18] yes=19,no=20,missing=19,gain=10.8772,cover=540.257
				19:leaf=-0.0224615,cover=96.393
				20:leaf=-0.0598343,cover=443.864
			10:[Dao_Qi_Ri<131891] yes=21,no=22,missing=21,gain=19.5347,cover=1014.27
				21:leaf=-0.0959195,cover=696.689
				22:leaf=-0.0654677,cover=317.58
	2:[Di_Qu_=Shang_Hai_Fen_Bu<1.5] yes=5,no=6,missing=6,gain=63.1012,cover=1102.03
		5:[Li_Lu_Lei_Xing_=Gu_Ding<54.5] yes=11,no=12,missing=11,gain=12.5446,cover=608.426
			11:[Di_Qu_=Yan_Dong_Fen_Bu<8550] yes=23,no=24,missing=23,gain=11.214,cover=585.321
				23:leaf=-0.0197388,cover=555.745
				24:leaf=-0.0820861,cover=29.5767
			12:[Di_Qu_=Shan_Xi_Fen_Bu<29867] yes=25,no=26,missing=26,gain=9.11604,cover=23.1051
				25:leaf=-0.00954305,cover=12.1506
				26:leaf=0.112735,cover=10.9545
		6:[Dao_Qi_Ri<2207.5] yes=13,no=14,missing=14,gain=7.54362,cover=493.6
			13:[Di_Qu_=Yan_Dong_Fen_Bu<22522.5] yes=27,no=28,missing=28,gain=9.21836,cover=46.078
				27:leaf=-0.0550279,cover=22.4817
				28:leaf=0.0326217,cover=23.5963
			14:[Sheng_Yu_Li_Xi_(Yuan<17135.5] yes=29,no=30,missing=29,gain=9.76312,cover=447.522
				29:leaf=0.0608792,cover=91.7232
				30:leaf=0.0242684,cover=355.798
booster[12]:
0:[Di_Qu_=Shang_Hai_Fen_Bu<0] yes=1,no=2,missing=1,gain=279.337,cover=4041.44
	1:[Di_Qu_=An_Hui_Fen_Bu<1500.5] yes=3,no=4,missing=3,gain=49.2201,cover=2946.92
		3:[Di_Qu_=Yun_Nan_Fen_Bu<-1.5] yes=7,no=8,missing=7,gain=24.4993,cover=1091.49
			7:[Di_Qu_=Dong_Wan_Fen_Bu<0.5] yes=15,no=16,missing=15,gain=11.9624,cover=640.784
				15:leaf=-0.0546351,cover=637.075
				16:leaf=0.107233,cover=3.70929
			8:[He_Tong_Li_Lu<145000] yes=17,no=18,missing=17,gain=18.2517,cover=450.71
				17:leaf=-0.0041103,cover=239.74
				18:leaf=-0.0444078,cover=210.971
		4:[Di_Qu_=Bei_Jing_Fen_Bu<0.5] yes=9,no=10,missing=9,gain=31.9607,cover=1855.43
			9:[He_Tong_Li_Lu<75000] yes=19,no=20,missing=19,gain=15.1529,cover=1738.63
				19:leaf=-0.0536652,cover=393.972
				20:leaf=-0.0763115,cover=1344.66
			10:[He_Tong_Li_Lu<35000] yes=21,no=22,missing=21,gain=9.60783,cover=116.798
				21:leaf=0.0348645,cover=26.6371
				22:leaf=-0.0325439,cover=90.1613
	2:[Di_Qu_=Shang_Hai_Fen_Bu<1.5] yes=5,no=6,missing=6,gain=51.5913,cover=1094.52
		5:[Di_Qu_=Nan_Jing_Fen_Bu<0.5] yes=11,no=12,missing=11,gain=11.7178,cover=605.38
			11:[Di_Qu_=Yan_Xi_Fen_Bu<3610] yes=23,no=24,missing=23,gain=12.6325,cover=485.327
				23:leaf=-0.0183901,cover=414.685
				24:leaf=-0.0639697,cover=70.6419
			12:[Li_Lu_Lei_Xing_=Gu_Ding<43.5] yes=25,no=26,missing=25,gain=7.80155,cover=120.052
				25:leaf=-0.00292143,cover=97.0424
				26:leaf=0.0607169,cover=23.01
		6:[Di_Qu_=Si_Chuan_Fen_Bu<604] yes=13,no=14,missing=14,gain=7.02222,cover=489.14
			13:[Di_Qu_=Yan_Dong_Fen_Bu<2900] yes=27,no=28,missing=28,gain=4.77573,cover=17.662
				27:leaf=0.0119489,cover=9.78407
				28:leaf=-0.0882903,cover=7.87796
			14:[Li_Shi_Yu_Qi_Ci_Shu<4.5] yes=29,no=30,missing=30,gain=6.18524,cover=471.478
				29:leaf=0.0289144,cover=467.017
				30:leaf=-0.0787902,cover=4.46111
booster[13]:
0:[Di_Qu_=Shang_Hai_Fen_Bu<0] yes=1,no=2,missing=1,gain=238.198,cover=3942.71
	1:[He_Tong_Li_Lu<145000] yes=3,no=4,missing=3,gain=44.7157,cover=2856.01
		3:[Di_Qu_=Ji_Lin_Fen_Bu<0.5] yes=7,no=8,missing=7,gain=29.1208,cover=1418.01
			7:[Dao_Qi_Ri<8403] yes=15,no=16,missing=16,gain=22.9498,cover=1291.58
				15:leaf=-0.022727,cover=327.551
				16:leaf=-0.0534652,cover=964.027
			8:[Dao_Qi_Ri<17137.5] yes=17,no=18,missing=18,gain=9.35873,cover=126.433
				17:leaf=0.0380371,cover=49.5403
				18:leaf=-0.017225,cover=76.8925
		4:[Dao_Qi_Ri<6856.5] yes=9,no=10,missing=9,gain=37.2122,cover=1438
			9:[Dao_Qi_Ri<4740] yes=19,no=20,missing=19,gain=10.6143,cover=580.965
				19:leaf=-0.0386889,cover=436.439
				20:leaf=-0.0701835,cover=144.525
			10:[Dao_Qi_Ri<131891] yes=21,no=22,missing=22,gain=22.8028,cover=857.032
				21:leaf=-0.0915418,cover=559.562
				22:leaf=-0.0568539,cover=297.471
	2:[Di_Qu_=Shang_Hai_Fen_Bu<1.5] yes=5,no=6,missing=6,gain=42.1072,cover=1086.71
		5:[Li_Lu_Lei_Xing_=Gu_Ding<45.5] yes=11,no=12,missing=11,gain=10.4909,cover=601.651
			11:[Dao_Qi_Ri<2062] yes=23,no=24,missing=24,gain=9.80487,cover=506.216
				23:leaf=-0.0616941,cover=55.2199
				24:leaf=-0.0173,cover=450.996
			12:[Di_Qu_=Jiang_Xi_Fen_Bu<1.5] yes=25,no=26,missing=25,gain=8.78577,cover=95.435
				25:leaf=0.0492047,cover=39.5926
				26:leaf=-0.0117702,cover=55.8425
		6:[Di_Qu_=Nan_Jing_Fen_Bu<0.5] yes=13,no=14,missing=13,gain=6.94544,cover=485.055
			13:[Dao_Qi_Ri<573.5] yes=27,no=28,missing=28,gain=7.07993,cover=290.404
				27:leaf=-0.0577255,cover=12.4884
				28:leaf=0.0165455,cover=277.916
			14:[Di_Qu_=Shan_Dong_Fen_Bu<12150] yes=29,no=30,missing=29,gain=7.2185,cover=194.651
				29:leaf=0.0409656,cover=189.275
				30:leaf=-0.0682527,cover=5.37616
booster[14]:
0:[Di_Qu_=Shang_Hai_Fen_Bu<0] yes=1,no=2,missing=1,gain=202.848,cover=3850.77
	1:[Di_Qu_=An_Hui_Fen_Bu<4975.5] yes=3,no=4,missing=3,gain=43.2045,cover=2771.3
		3:[Di_Qu_=Yun_Nan_Fen_Bu<-1.5] yes=7,no=8,missing=7,gain=30.4897,cover=2001.15
			7:[He_Tong_Li_Lu<45000] yes=15,no=16,missing=15,gain=24.915,cover=1409.02
				15:leaf=-0.0210689,cover=243.262
				16:leaf=-0.0563686,cover=1165.75
			8:[He_Tong_Li_Lu<145000] yes=17,no=18,missing=17,gain=16.9113,cover=592.132
				17:leaf=-0.00646312,cover=299.772
				18:leaf=-0.0402617,cover=292.36
		4:[Di_Qu_=Ji_Lin_Fen_Bu<0.5] yes=9,no=10,missing=9,gain=17.6876,cover=770.156
			9:[Li_Shi_Zui_Chang_Yu_Qi_Tian_Shu<191166] yes=19,no=20,missing=19,gain=18.7538,cover=737.641
				19:leaf=-0.078911,cover=659.133
				20:leaf=-0.0267702,cover=78.5076
			10:[He_Tong_Li_Lu<185000] yes=21,no=22,missing=21,gain=5.8243,cover=32.5158
				21:leaf=0.0345748,cover=20.1119
				22:leaf=-0.0497129,cover=12.4039
	2:[Di_Qu_=Shang_Hai_Fen_Bu<1.5] yes=5,no=6,missing=6,gain=34.3922,cover=1079.47
		5:[Di_Qu_=Bei_Jing_Fen_Bu<0] yes=11,no=12,missing=11,gain=9.96962,cover=598.682
			11:[Di_Qu_=Si_Chuan_Fen_Bu<2074.5] yes=23,no=24,missing=23,gain=10.7326,cover=456.153
				23:leaf=-0.0156025,cover=387.114
				24:leaf=-0.0582307,cover=69.0391
			12:[Li_Shi_Zui_Chang_Yu_Qi_Tian_Shu<7272.5] yes=25,no=26,missing=25,gain=6.91621,cover=142.529
				25:leaf=0.0573464,cover=22.7733
				26:leaf=-0.00168958,cover=119.756
		6:[Di_Qu_=Ji_Lin_Fen_Bu<0.5] yes=13,no=14,missing=13,gain=6.04639,cover=480.786
			13:[Li_Shi_Zui_Chang_Yu_Qi_Tian_Shu<30687] yes=27,no=28,missing=28,gain=5.65385,cover=301.864
				27:leaf=-0.00153143,cover=150.412
				28:leaf=0.0257857,cover=151.451
			14:[Di_Qu_=Dong_Wan_Fen_Bu<3.5] yes=29,no=30,missing=29,gain=5.61785,cover=178.923
				29:leaf=0.0398618,cover=168.545
				30:leaf=-0.03353,cover=10.3771
booster[15]:
0:[Di_Qu_=Shang_Hai_Fen_Bu<0] yes=1,no=2,missing=1,gain=172.427,cover=3765.04
	1:[Di_Qu_=Si_Chuan_Fen_Bu<2961.5] yes=3,no=4,missing=3,gain=40.4639,cover=2692.58
		3:[Di_Qu_=Ji_Lin_Fen_Bu<-1.5] yes=7,no=8,missing=7,gain=21.8352,cover=1488.03
			7:[Sheng_Yu_Ben_Jin_(Yuan<-106.5] yes=15,no=16,missing=15,gain=15.4111,cover=1045.69
				15:leaf=-0.0202975,cover=229.863
				16:leaf=-0.0497359,cover=815.832
			8:[Dao_Qi_Ri<10549.5] yes=17,no=18,missing=18,gain=12.8744,cover=442.339
				17:leaf=-0.00534386,cover=306.721
				18:leaf=-0.0422722,cover=135.618
		4:[Di_Qu_=Bei_Jing_Fen_Bu<0.5] yes=9,no=10,missing=9,gain=28.431,cover=1204.54
			9:[Dao_Qi_Ri<295894] yes=19,no=20,missing=19,gain=13.6378,cover=1120.4
				19:leaf=-0.0665943,cover=1075.11
				20:leaf=-0.0103294,cover=45.2951
			10:[Di_Qu_=Shan_Xi_Fen_Bu<100858] yes=21,no=22,missing=22,gain=5.64524,cover=84.1404
				21:leaf=-0.0200968,cover=60.6606
				22:leaf=0.0366705,cover=23.4797
	2:[Di_Qu_=Dong_Wan_Fen_Bu<1.5] yes=5,no=6,missing=6,gain=28.3419,cover=1072.46
		5:[Di_Qu_=Shan_Xi_Fen_Bu<16533] yes=11,no=12,missing=12,gain=24.9847,cover=305.193
			11:[Li_Shi_Zui_Chang_Yu_Qi_Tian_Shu<1221] yes=23,no=24,missing=24,gain=5.89503,cover=111.119
				23:leaf=-0.0260375,cover=33.1979
				24:leaf=-0.0773447,cover=77.921
			12:[Di_Qu_=Yan_Dong_Fen_Bu<1624.5] yes=25,no=26,missing=25,gain=8.56643,cover=194.074
				25:leaf=0.0054514,cover=167.199
				26:leaf=-0.0544055,cover=26.8751
		6:[Di_Qu_=Shang_Hai_Fen_Bu<1.5] yes=13,no=14,missing=14,gain=9.87893,cover=767.272
			13:[Li_Lu_Lei_Xing_=Gu_Ding<42.5] yes=27,no=28,missing=27,gain=7.75805,cover=313.434
				27:leaf=-0.0107419,cover=245.745
				28:leaf=0.0272579,cover=67.6885
			14:[Di_Qu_=Yan_Dong_Fen_Bu<10101] yes=29,no=30,missing=29,gain=5.91591,cover=453.838
				29:leaf=0.0230882,cover=433.362
				30:leaf=-0.0308709,cover=20.4756
booster[16]:
0:[Di_Qu_=Shang_Hai_Fen_Bu<0] yes=1,no=2,missing=1,gain=146.091,cover=3685.77
	1:[He_Tong_Li_Lu<75000] yes=3,no=4,missing=3,gain=39.573,cover=2619.69
		3:[Dao_Qi_Ri<16836] yes=7,no=8,missing=8,gain=15.7677,cover=791.806
			7:[Di_Qu_=An_Hui_Fen_Bu<4084.5] yes=15,no=16,missing=15,gain=15.6115,cover=322.703
				15:leaf=0.000405637,cover=288.033
				16:leaf=-0.0697256,cover=34.6705
			8:[Dao_Qi_Ri<26585.5] yes=17,no=18,missing=17,gain=9.01737,cover=469.103
				17:leaf=-0.0528874,cover=189.53
				18:leaf=-0.0244954,cover=279.573
		4:[Dao_Qi_Ri<2092.5] yes=9,no=10,missing=9,gain=33.5807,cover=1827.88
			9:[Di_Qu_=Shan_Xi_Fen_Bu<2053.5] yes=19,no=20,missing=19,gain=8.75494,cover=448.54
				19:leaf=-0.0200889,cover=355.862
				20:leaf=-0.0545846,cover=92.6776
			10:[Di_Qu_=Ji_Lin_Fen_Bu<0.5] yes=21,no=22,missing=21,gain=27.3258,cover=1379.34
				21:leaf=-0.0622306,cover=1306.65
				22:leaf=0.000750126,cover=72.6964
	2:[Di_Qu_=Shang_Hai_Fen_Bu<1.5] yes=5,no=6,missing=6,gain=23.3641,cover=1066.08
		5:[Li_Lu_Lei_Xing_=Gu_Ding<56.5] yes=11,no=12,missing=11,gain=9.68077,cover=592.253
			11:[He_Tong_Li_Lu<25000] yes=23,no=24,missing=23,gain=8.86721,cover=578.086
				23:leaf=0.0170862,cover=76.4954
				24:leaf=-0.0192974,cover=501.591
			12:[Di_Qu_=Shan_Xi_Fen_Bu<1990.5] yes=25,no=26,missing=26,gain=7.51848,cover=14.167
				25:leaf=-0.0528838,cover=3.35871
				26:leaf=0.10498,cover=10.8083
		6:[He_Tong_Jin_E_(Yuan<1.5] yes=13,no=14,missing=14,gain=5.42124,cover=473.831
			13:[Di_Qu_=Shan_Dong_Fen_Bu<1210.5] yes=27,no=28,missing=28,gain=7.4794,cover=221.157
				27:leaf=-0.0117167,cover=37.4632
				28:leaf=0.037021,cover=183.694
			14:[Di_Qu_=Shan_Xi_Fen_Bu<656.5] yes=29,no=30,missing=30,gain=7.09374,cover=252.674
				29:leaf=-0.0436398,cover=23.7333
				30:leaf=0.0127426,cover=228.941
booster[17]:
0:[Di_Qu_=Shang_Hai_Fen_Bu<0] yes=1,no=2,missing=1,gain=123.805,cover=3612.58
	1:[Di_Qu_=Yun_Nan_Fen_Bu<0.5] yes=3,no=4,missing=3,gain=36.9659,cover=2551.72
		3:[Di_Qu_=Si_Chuan_Fen_Bu<1923.5] yes=7,no=8,missing=7,gain=38.9283,cover=2354.9
			7:[Di_Qu_=Shan_Xi_Fen_Bu<2188.5] yes=15,no=16,missing=15,gain=12.8901,cover=978.21
				15:leaf=-0.0231318,cover=827.71
				16:leaf=-0.054952,cover=150.5
			8:[He_Tong_Li_Lu<145000] yes=17,no=18,missing=17,gain=15.7919,cover=1376.69
				17:leaf=-0.0420358,cover=607.89
				18:leaf=-0.0637876,cover=768.801
		4:[Di_Qu_=Shan_Xi_Fen_Bu<757.5] yes=9,no=10,missing=9,gain=9.6272,cover=196.818
			9:[Li_Lu_Lei_Xing_=Gu_Ding<23.5] yes=19,no=20,missing=19,gain=4.77116,cover=87.3452
				19:leaf=0.0941593,cover=8.33701
				20:leaf=0.0180788,cover=79.0082
			10:[Di_Qu_=Si_Chuan_Fen_Bu<85.5] yes=21,no=22,missing=21,gain=6.73974,cover=109.473
				21:leaf=0.0694212,cover=7.24302
				22:leaf=-0.0247652,cover=102.23
	2:[Di_Qu_=Dong_Wan_Fen_Bu<1.5] yes=5,no=6,missing=6,gain=20.7682,cover=1060.86
		5:[Di_Qu_=Shan_Xi_Fen_Bu<16533] yes=11,no=12,missing=12,gain=21.1308,cover=300.619
			11:[Li_Shi_Zui_Chang_Yu_Qi_Tian_Shu<1221] yes=23,no=24,missing=24,gain=5.27522,cover=107.731
				23:leaf=-0.022268,cover=32.6745
				24:leaf=-0.0712241,cover=75.0563
			12:[Li_Shi_Zui_Chang_Yu_Qi_Tian_Shu<1622.5] yes=25,no=26,missing=25,gain=7.30857,cover=192.889
				25:leaf=0.00676782,cover=163.385
				26:leaf=-0.0465299,cover=29.5038
		6:[Di_Qu_=Shan_Xi_Fen_Bu<19000.5] yes=13,no=14,missing=13,gain=8.17734,cover=760.243
			13:[Di_Qu_=Yan_Dong_Fen_Bu<442] yes=27,no=28,missing=28,gain=7.50677,cover=747.882
				27:leaf=-0.0335972,cover=35.1427
				28:leaf=0.0131534,cover=712.74
			14:[Di_Qu_=An_Hui_Fen_Bu<1640] yes=29,no=30,missing=29,gain=3.47984,cover=12.3609
				29:leaf=-0.00890435,cover=5.88027
				30:leaf=-0.113364,cover=6.48059
booster[18]:
0:[Di_Qu_=Shang_Hai_Fen_Bu<0] yes=1,no=2,missing=1,gain=104.515,cover=3544.75
	1:[He_Tong_Li_Lu<145000] yes=3,no=4,missing=3,gain=33.7696,cover=2487.98
		3:[Di_Qu_=Bei_Jing_Fen_Bu<0.5] yes=7,no=8,missing=7,gain=20.7662,cover=1274.48
			7:[Di_Qu_=Dong_Wan_Fen_Bu<0.5] yes=15,no=16,missing=15,gain=17.9386,cover=1146.75
				15:leaf=-0.0319189,cover=1113.64
				16:leaf=0.0418846,cover=33.1083
			8:[Di_Qu_=Si_Chuan_Fen_Bu<5282.5] yes=17,no=18,missing=18,gain=7.5974,cover=127.726
				17:leaf=0.0251642,cover=101.133
				18:leaf=-0.0340349,cover=26.5935
		4:[Dao_Qi_Ri<6856.5] yes=9,no=10,missing=9,gain=31.7222,cover=1213.5
			9:[Di_Qu_=Dong_Wan_Fen_Bu<2.5] yes=19,no=20,missing=19,gain=9.47923,cover=514.852
				19:leaf=-0.031088,cover=511.661
				20:leaf=0.120635,cover=3.19064
			10:[Dao_Qi_Ri<131891] yes=21,no=22,missing=22,gain=25.9478,cover=698.651
				21:leaf=-0.0769523,cover=452.407
				22:leaf=-0.0363775,cover=246.244
	2:[Di_Qu_=Ji_Lin_Fen_Bu<0.5] yes=5,no=6,missing=5,gain=18.0028,cover=1056.77
		5:[Di_Qu_=Ji_Lin_Fen_Bu<-1.5] yes=11,no=12,missing=11,gain=13.4739,cover=776.577
			11:[Di_Qu_=Shan_Dong_Fen_Bu<553.5] yes=23,no=24,missing=23,gain=9.69768,cover=638.573
				23:leaf=0.0136852,cover=261.968
				24:leaf=-0.011327,cover=376.605
			12:[Li_Shi_Zui_Chang_Yu_Qi_Tian_Shu<-130.5] yes=25,no=26,missing=26,gain=11.3718,cover=138.004
				25:leaf=0.143178,cover=2.52351
				26:leaf=-0.0397695,cover=135.48
		6:[Di_Qu_=Dong_Wan_Fen_Bu<3.5] yes=13,no=14,missing=13,gain=7.46999,cover=280.19
			13:[Di_Qu_=Yan_Xi_Fen_Bu<4066] yes=27,no=28,missing=27,gain=7.2691,cover=265.691
				27:leaf=0.0328879,cover=227.975
				28:leaf=-0.0141825,cover=37.7161
			14:[Li_Shi_Zui_Chang_Yu_Qi_Tian_Shu<85393.5] yes=29,no=30,missing=29,gain=8.94794,cover=14.4988
				29:leaf=-0.0851275,cover=11.4555
				30:leaf=0.0879351,cover=3.04327
booster[19]:
0:[Di_Qu_=Shang_Hai_Fen_Bu<0] yes=1,no=2,missing=1,gain=88.3224,cover=3483.27
	1:[Di_Qu_=An_Hui_Fen_Bu<4975.5] yes=3,no=4,missing=3,gain=32.7863,cover=2429.31
		3:[Di_Qu_=Yun_Nan_Fen_Bu<-1.5] yes=7,no=8,missing=7,gain=20.9788,cover=1788.64
			7:[He_Tong_Li_Lu<45000] yes=15,no=16,missing=15,gain=19.1716,cover=1240.07
				15:leaf=-0.0078621,cover=225.279
				16:leaf=-0.0401473,cover=1014.8
			8:[Di_Qu_=Shan_Dong_Fen_Bu<2652.5] yes=17,no=18,missing=17,gain=13.816,cover=548.562
				17:leaf=-0.00152111,cover=409.817
				18:leaf=-0.0379363,cover=138.745
		4:[Dao_Qi_Ri<226343] yes=9,no=10,missing=10,gain=17.9485,cover=640.671
			9:[Di_Qu_=Ji_Lin_Fen_Bu<0.5] yes=19,no=20,missing=19,gain=15.9181,cover=551.716
				19:leaf=-0.0640874,cover=524.172
				20:leaf=0.0134586,cover=27.5441
			10:[Li_Shi_Zui_Chang_Yu_Qi_Tian_Shu<18190.5] yes=21,no=22,missing=22,gain=5.77111,cover=88.9548
				21:leaf=-0.0933877,cover=6.88304
				22:leaf=-0.00375363,cover=82.0718
	2:[Di_Qu_=Shang_Hai_Fen_Bu<1.5] yes=5,no=6,missing=6,gain=16.7839,cover=1053.96
		5:[Li_Lu_Lei_Xing_=Gu_Ding<56.5] yes=11,no=12,missing=11,gain=8.08374,cover=586.188
			11:[Di_Qu_=Yan_Dong_Fen_Bu<8550] yes=23,no=24,missing=23,gain=7.39695,cover=572.014
				23:leaf=-0.00996231,cover=544.8
				24:leaf=-0.0625283,cover=27.2134
			12:[Di_Qu_=Shan_Xi_Fen_Bu<1990.5] yes=25,no=26,missing=26,gain=5.98877,cover=14.1748
				25:leaf=-0.0472601,cover=3.25007
				26:leaf=0.0950181,cover=10.9247
		6:[Li_Shi_Yu_Qi_Ci_Shu<4.5] yes=13,no=14,missing=14,gain=4.80135,cover=467.769
			13:[Li_Lu_Lei_Xing_=Gu_Ding<38.5] yes=27,no=28,missing=27,gain=4.95546,cover=463.308
				27:leaf=0.00833891,cover=307.025
				28:leaf=0.0302096,cover=156.283
			14:[Di_Qu_=Yan_Dong_Fen_Bu<4416.5] yes=29,no=30,missing=30,gain=1.69397,cover=4.46161
				29:leaf=-0.112978,cover=2.97051
				30:leaf=0.00740277,cover=1.4911
booster[20]:
0:[Di_Qu_=Yun_Nan_Fen_Bu<1.5] yes=1,no=2,missing=1,gain=77.7176,cover=3425.92
	1:[Di_Qu_=Si_Chuan_Fen_Bu<2973] yes=3,no=4,missing=3,gain=47.8776,cover=2796.71
		3:[Di_Qu_=Shang_Hai_Fen_Bu<-1.5] yes=7,no=8,missing=7,gain=25.2268,cover=1782.12
			7:[Sheng_Yu_Ben_Jin_(Yuan<8514] yes=15,no=16,missing=16,gain=14.4656,cover=913.675
				15:leaf=-0.052881,cover=218.765
				16:leaf=-0.0233573,cover=694.91
			8:[Di_Qu_=Shan_Xi_Fen_Bu<4155] yes=17,no=18,missing=17,gain=13.1828,cover=868.442
				17:leaf=-0.00210712,cover=764.592
				18:leaf=-0.0399221,cover=103.85
		4:[Dao_Qi_Ri<109861] yes=9,no=10,missing=9,gain=21.8558,cover=1014.59
			9:[Di_Qu_=Nan_Jing_Fen_Bu<0.5] yes=19,no=20,missing=19,gain=16.5656,cover=688.383
				19:leaf=-0.0591056,cover=665.328
				20:leaf=0.0261646,cover=23.0553
			10:[Sheng_Yu_Ben_Jin_(Yuan<228032] yes=21,no=22,missing=21,gain=9.09513,cover=326.211
				21:leaf=-0.0315976,cover=278.253
				22:leaf=0.0152856,cover=47.9577
	2:[Dao_Qi_Ri<15287.5] yes=5,no=6,missing=6,gain=7.51391,cover=629.206
		5:[Di_Qu_=Shan_Dong_Fen_Bu<2710] yes=11,no=12,missing=11,gain=12.5289,cover=212.676
			11:[Di_Qu_=Yan_Dong_Fen_Bu<176] yes=23,no=24,missing=24,gain=7.16887,cover=187.194
				23:leaf=-0.0753962,cover=4.88377
				24:leaf=0.0376558,cover=182.31
			12:[Sheng_Yu_Li_Xi_(Yuan<52451] yes=25,no=26,missing=26,gain=6.80486,cover=25.4829
				25:leaf=-0.0542532,cover=23.855
				26:leaf=0.116801,cover=1.62792
		6:[Li_Shi_Zui_Chang_Yu_Qi_Tian_Shu<18838.5] yes=13,no=14,missing=13,gain=14.018,cover=416.53
			13:[Dao_Qi_Ri<67] yes=27,no=28,missing=28,gain=8.4824,cover=70.5352
				27:leaf=0.1473,cover=1.44039
				28:leaf=-0.0439415,cover=69.0948
			14:[Di_Qu_=Si_Chuan_Fen_Bu<4560] yes=29,no=30,missing=30,gain=7.12083,cover=345.994
				29:leaf=0.0256736,cover=163.52
				30:leaf=-0.00300086,cover=182.474
booster[21]:
0:[Di_Qu_=Nan_Jing_Fen_Bu<0.5] yes=1,no=2,missing=1,gain=67.4496,cover=3376.64
	1:[Di_Qu_=Shang_Hai_Fen_Bu<-1.5] yes=3,no=4,missing=3,gain=40.3794,cover=2942.56
		3:[He_Tong_Li_Lu<75000] yes=7,no=8,missing=7,gain=19.3067,cover=1609.6
			7:[He_Tong_Jin_E_(Yuan<1.5] yes=15,no=16,missing=16,gain=10.6934,cover=552.485
				15:leaf=-0.00321009,cover=214.974
				16:leaf=-0.0317452,cover=337.511
			8:[Dao_Qi_Ri<296952] yes=17,no=18,missing=18,gain=26.6254,cover=1057.12
				17:leaf=-0.0494311,cover=938.483
				18:leaf=0.000838454,cover=118.634
		4:[Di_Qu_=Si_Chuan_Fen_Bu<3243.5] yes=9,no=10,missing=9,gain=25.7989,cover=1332.96
			9:[Di_Qu_=Shan_Xi_Fen_Bu<4321.5] yes=19,no=20,missing=19,gain=11.4277,cover=1014.07
				19:leaf=-0.000638582,cover=895.569
				20:leaf=-0.0335623,cover=118.497
			10:[Dao_Qi_Ri<175496] yes=21,no=22,missing=21,gain=16.2001,cover=318.891
				21:leaf=-0.0440734,cover=291.006
				22:leaf=0.0347641,cover=27.8855
	2:[Li_Lu_Lei_Xing_=Gu_Ding<35.5] yes=5,no=6,missing=5,gain=6.88171,cover=434.084
		5:[Di_Qu_=An_Hui_Fen_Bu<1512.5] yes=11,no=12,missing=12,gain=8.46568,cover=251.919
			11:[Di_Qu_=Yan_Xi_Fen_Bu<565] yes=23,no=24,missing=24,gain=4.32948,cover=43.0616
				23:leaf=-0.0289237,cover=6.00449
				24:leaf=0.0586509,cover=37.0571
			12:[Di_Qu_=Yan_Xi_Fen_Bu<364.5] yes=25,no=26,missing=26,gain=6.05234,cover=208.857
				25:leaf=-0.0926052,cover=6.14777
				26:leaf=0.00101767,cover=202.709
		6:[Dao_Qi_Ri<2501.5] yes=13,no=14,missing=14,gain=7.36616,cover=182.165
			13:[Di_Qu_=Si_Chuan_Fen_Bu<1493] yes=27,no=28,missing=28,gain=6.75763,cover=19.7558
				27:leaf=-0.0248335,cover=3.9026
				28:leaf=0.11567,cover=15.8532
			14:[Di_Qu_=Ji_Lin_Fen_Bu<0.5] yes=29,no=30,missing=30,gain=10.5771,cover=162.409
				29:leaf=-0.0910809,cover=6.62738
				30:leaf=0.0298454,cover=155.782
booster[22]:
0:[Di_Qu_=Yun_Nan_Fen_Bu<1.5] yes=1,no=2,missing=1,gain=57.4511,cover=3329.79
	1:[Di_Qu_=Si_Chuan_Fen_Bu<2973] yes=3,no=4,missing=3,gain=36.3712,cover=2704.59
		3:[Di_Qu_=Ji_Lin_Fen_Bu<0.5] yes=7,no=8,missing=7,gain=17.7541,cover=1745.4
			7:[Di_Qu_=Shan_Xi_Fen_Bu<661964] yes=15,no=16,missing=16,gain=17.773,cover=1626.77
				15:leaf=-0.0255244,cover=1122.5
				16:leaf=-0.00292065,cover=504.267
			8:[Di_Qu_=An_Hui_Fen_Bu<1718] yes=17,no=18,missing=17,gain=9.46698,cover=118.631
				17:leaf=0.0506169,cover=56.5986
				18:leaf=-0.00560272,cover=62.0326
		4:[Dao_Qi_Ri<109861] yes=9,no=10,missing=9,gain=19.4234,cover=959.191
			9:[Di_Qu_=Nan_Jing_Fen_Bu<0.5] yes=19,no=20,missing=19,gain=12.8603,cover=646.2
				19:leaf=-0.0526847,cover=622.779
				20:leaf=0.0220026,cover=23.4213
			10:[He_Tong_Li_Lu<155000] yes=21,no=22,missing=21,gain=9.3229,cover=312.991
				21:leaf=0.0139882,cover=65.1379
				22:leaf=-0.0283381,cover=247.853
	2:[Dao_Qi_Ri<15287.5] yes=5,no=6,missing=6,gain=5.99081,cover=625.203
		5:[Di_Qu_=Shan_Dong_Fen_Bu<2710] yes=11,no=12,missing=11,gain=9.6788,cover=210.992
			11:[Di_Qu_=Shan_Xi_Fen_Bu<125] yes=23,no=24,missing=24,gain=6.94304,cover=186.153
				23:leaf=0.166319,cover=2.74193
				24:leaf=0.0278014,cover=183.411
			12:[Di_Qu_=Shan_Dong_Fen_Bu<7180.5] yes=25,no=26,missing=26,gain=6.12767,cover=24.839
				25:leaf=-0.0676372,cover=16.8653
				26:leaf=0.0346028,cover=7.97369
		6:[Li_Shi_Zui_Chang_Yu_Qi_Tian_Shu<19314] yes=13,no=14,missing=13,gain=11.1994,cover=414.211
			13:[Sheng_Yu_Ben_Jin_(Yuan<18467.5] yes=27,no=28,missing=27,gain=8.7434,cover=77.4969
				27:leaf=-0.0069345,cover=50.6553
				28:leaf=-0.076851,cover=26.8417
			14:[Di_Qu_=Si_Chuan_Fen_Bu<4560] yes=29,no=30,missing=30,gain=5.66398,cover=336.714
				29:leaf=0.0239614,cover=156.554
				30:leaf=-0.00198775,cover=180.16
booster[23]:
0:[Di_Qu_=Bei_Jing_Fen_Bu<0] yes=1,no=2,missing=1,gain=50.1577,cover=3289.58
	1:[Di_Qu_=An_Hui_Fen_Bu<4975.5] yes=3,no=4,missing=3,gain=31.1856,cover=2774.23
		3:[Di_Qu_=Shang_Hai_Fen_Bu<-1.5] yes=7,no=8,missing=7,gain=25.8976,cover=2143.36
			7:[He_Tong_Li_Lu<135000] yes=15,no=16,missing=15,gain=13.1663,cover=1128.51
				15:leaf=-0.0182887,cover=718.995
				16:leaf=-0.0407892,cover=409.513
			8:[Dao_Qi_Ri<80330] yes=17,no=18,missing=17,gain=12.0515,cover=1014.85
				17:leaf=-0.00721363,cover=954.815
				18:leaf=0.0386217,cover=60.0374
		4:[Dao_Qi_Ri<226343] yes=9,no=10,missing=9,gain=16.7114,cover=630.867
			9:[Di_Qu_=Si_Chuan_Fen_Bu<9286] yes=19,no=20,missing=19,gain=10.2889,cover=545.953
				19:leaf=-0.0396339,cover=408.659
				20:leaf=-0.0715272,cover=137.294
			10:[Di_Qu_=Yan_Dong_Fen_Bu<9469] yes=21,no=22,missing=22,gain=10.8941,cover=84.9135
				21:leaf=0.0352536,cover=42.5355
				22:leaf=-0.0355544,cover=42.378
	2:[Di_Qu_=Yan_Xi_Fen_Bu<13150] yes=5,no=6,missing=5,gain=8.37404,cover=515.358
		5:[Li_Lu_Lei_Xing_=Gu_Ding<34.5] yes=11,no=12,missing=11,gain=7.23364,cover=504.563
			11:[Dao_Qi_Ri<169788] yes=23,no=24,missing=24,gain=8.05606,cover=268.227
				23:leaf=-0.00104322,cover=256.663
				24:leaf=0.0809667,cover=11.5634
			12:[Di_Qu_=Yan_Xi_Fen_Bu<1472.5] yes=25,no=26,missing=26,gain=7.15724,cover=236.337
				25:leaf=-0.00376289,cover=57.8609
				26:leaf=0.0366207,cover=178.476
		6:[Di_Qu_=Nan_Jing_Fen_Bu<0.5] yes=13,no=14,missing=13,gain=3.3604,cover=10.7947
			13:[Di_Qu_=Yan_Dong_Fen_Bu<987] yes=27,no=28,missing=28,gain=1.92618,cover=5.31524
				27:leaf=-0.00340583,cover=1.18736
				28:leaf=-0.147699,cover=4.12787
			14:[Sheng_Yu_Li_Xi_(Yuan<26295] yes=29,no=30,missing=30,gain=4.04614,cover=5.47943
				29:leaf=-0.107858,cover=1.70963
				30:leaf=0.0453861,cover=3.7698
booster[24]:
0:[Di_Qu_=Shang_Hai_Fen_Bu<1.5] yes=1,no=2,missing=1,gain=44.0388,cover=3250.15
	1:[Di_Qu_=Yan_Dong_Fen_Bu<715.5] yes=3,no=4,missing=3,gain=30.2477,cover=2787.48
		3:[He_Tong_Li_Lu<125000] yes=7,no=8,missing=7,gain=15.9505,cover=1093.92
			7:[Di_Qu_=Shang_Hai_Fen_Bu<-1.5] yes=15,no=16,missing=16,gain=14.5416,cover=561.531
				15:leaf=-0.0628337,cover=29.0092
				16:leaf=0.0087144,cover=532.521
			8:[Dao_Qi_Ri<152340] yes=17,no=18,missing=18,gain=24.164,cover=532.388
				17:leaf=-0.033927,cover=360.202
				18:leaf=0.0115417,cover=172.186
		4:[He_Tong_Li_Lu<355000] yes=9,no=10,missing=9,gain=20.7047,cover=1693.57
			9:[Sheng_Yu_Li_Xi_(Yuan<279853] yes=19,no=20,missing=19,gain=15.7722,cover=1499.77
				19:leaf=-0.0250391,cover=1489.83
				20:leaf=0.0957102,cover=9.93713
			10:[Sheng_Yu_Ben_Jin_(Yuan<231187] yes=21,no=22,missing=22,gain=10.2323,cover=193.8
				21:leaf=-0.069848,cover=157.615
				22:leaf=-0.010591,cover=36.185
	2:[He_Tong_Jin_E_(Yuan<2.5] yes=5,no=6,missing=6,gain=4.94529,cover=462.668
		5:[Di_Qu_=Si_Chuan_Fen_Bu<604] yes=11,no=12,missing=12,gain=4.64,cover=456.706
			11:[Di_Qu_=Yan_Dong_Fen_Bu<2900] yes=23,no=24,missing=24,gain=4.36184,cover=17.0663
				23:leaf=0.0107501,cover=9.45105
				24:leaf=-0.0866339,cover=7.61523
			12:[Dao_Qi_Ri<46659.5] yes=25,no=26,missing=25,gain=5.27488,cover=439.64
				25:leaf=0.0261196,cover=252.862
				26:leaf=0.00395462,cover=186.778
		6:[Li_Shi_Yu_Qi_Ci_Shu<2.5] yes=13,no=14,missing=14,gain=4.29736,cover=5.96147
			13:[Di_Qu_=An_Hui_Fen_Bu<1650] yes=27,no=28,missing=28,gain=3.54998,cover=3.11755
				27:leaf=-0.0762416,cover=1.46191
				28:leaf=0.0907706,cover=1.65564
			14:[Li_Lu_Lei_Xing_=Gu_Ding<43] yes=29,no=30,missing=29,gain=0.129246,cover=2.84392
				29:leaf=-0.174706,cover=1.29879
				30:leaf=-0.0555997,cover=1.54513
booster[25]:
0:[Di_Qu_=Nan_Jing_Fen_Bu<0.5] yes=1,no=2,missing=1,gain=38.5738,cover=3212.92
	1:[Di_Qu_=Shan_Dong_Fen_Bu<580.5] yes=3,no=4,missing=3,gain=28.4171,cover=2784.48
		3:[Li_Shi_Yu_Qi_Ci_Shu<3.5] yes=7,no=8,missing=8,gain=9.75749,cover=911.339
			7:[Di_Qu_=An_Hui_Fen_Bu<10859.5] yes=15,no=16,missing=15,gain=9.5827,cover=899.27
				15:leaf=-0.000173199,cover=863.137
				16:leaf=-0.0520546,cover=36.1331
			8:[Dao_Qi_Ri<955.5] yes=17,no=18,missing=17,gain=2.27916,cover=12.0687
				17:leaf=-0.116716,cover=8.19882
				18:leaf=-0.0193155,cover=3.86993
		4:[He_Tong_Li_Lu<145000] yes=9,no=10,missing=9,gain=25.1467,cover=1873.14
			9:[Di_Qu_=An_Hui_Fen_Bu<10042.5] yes=19,no=20,missing=19,gain=10.5319,cover=1029.1
				19:leaf=-0.0124936,cover=988.601
				20:leaf=-0.063966,cover=40.5028
			10:[Dao_Qi_Ri<169696] yes=21,no=22,missing=21,gain=18.3473,cover=844.036
				21:leaf=-0.0454262,cover=668.632
				22:leaf=-0.00903487,cover=175.404
	2:[Di_Qu_=Dong_Wan_Fen_Bu<3.5] yes=5,no=6,missing=5,gain=5.5857,cover=428.444
		5:[Li_Lu_Lei_Xing_=Gu_Ding<45.5] yes=11,no=12,missing=11,gain=5.44132,cover=409.65
			11:[Di_Qu_=Yan_Xi_Fen_Bu<337] yes=23,no=24,missing=24,gain=4.92123,cover=342.255
				23:leaf=-0.0503401,cover=11.4722
				24:leaf=0.0137297,cover=330.783
			12:[Di_Qu_=Yan_Dong_Fen_Bu<1584.5] yes=25,no=26,missing=26,gain=5.57403,cover=67.3952
				25:leaf=-0.00286561,cover=19.3691
				26:leaf=0.0603534,cover=48.0261
		6:[Li_Shi_Zui_Chang_Yu_Qi_Tian_Shu<136992] yes=13,no=14,missing=13,gain=7.45489,cover=18.7943
			13:[Li_Shi_Zui_Chang_Yu_Qi_Tian_Shu<11749] yes=27,no=28,missing=28,gain=4.68805,cover=16.4688
				27:leaf=0.04729,cover=2.60148
				28:leaf=-0.0847726,cover=13.8673
			14:leaf=0.102444,cover=2.32551
booster[26]:
0:[Di_Qu_=Shang_Hai_Fen_Bu<-1.5] yes=1,no=2,missing=1,gain=34.2621,cover=3182.41
	1:[He_Tong_Li_Lu<165000] yes=3,no=4,missing=3,gain=15.8094,cover=1580.73
		3:[Di_Qu_=Yun_Nan_Fen_Bu<0.5] yes=7,no=8,missing=8,gain=12.903,cover=995.196
			7:[Li_Shi_Zui_Chang_Yu_Qi_Tian_Shu<77547.5] yes=15,no=16,missing=15,gain=7.26651,cover=126.176
				15:leaf=-0.0485676,cover=123.932
				16:leaf=0.105114,cover=2.24397
			8:[Dao_Qi_Ri<8686] yes=17,no=18,missing=18,gain=12.7015,cover=869.02
				17:leaf=0.0257195,cover=84.5623
				18:leaf=-0.0148726,cover=784.458
		4:[Dao_Qi_Ri<225969] yes=9,no=10,missing=10,gain=34.6147,cover=585.533
			9:[Dao_Qi_Ri<243] yes=19,no=20,missing=20,gain=7.82607,cover=442.749
				19:leaf=0.0134328,cover=18.3945
				20:leaf=-0.0525404,cover=424.354
			10:[Dao_Qi_Ri<479154] yes=21,no=22,missing=22,gain=15.258,cover=142.785
				21:leaf=-0.017714,cover=91.378
				22:leaf=0.0498473,cover=51.4066
	2:[Di_Qu_=Si_Chuan_Fen_Bu<5510.5] yes=5,no=6,missing=5,gain=19.2011,cover=1601.68
		5:[Li_Shi_Yu_Qi_Ci_Shu<3.5] yes=11,no=12,missing=12,gain=11.749,cover=1378.42
			11:[Li_Lu_Lei_Xing_=Gu_Ding<40.5] yes=23,no=24,missing=23,gain=9.50247,cover=1365.89
				23:leaf=-0.00202977,cover=989.433
				24:leaf=0.0166176,cover=376.46
			12:[Li_Lu_Lei_Xing_=Gu_Ding<42.5] yes=25,no=26,missing=25,gain=1.53477,cover=12.5228
				25:leaf=-0.110036,cover=9.2425
				26:leaf=-0.0227809,cover=3.28027
		6:[Dao_Qi_Ri<156234] yes=13,no=14,missing=13,gain=15.1886,cover=223.259
			13:[Di_Qu_=An_Hui_Fen_Bu<20931] yes=27,no=28,missing=27,gain=7.42813,cover=178.604
				27:leaf=-0.0341016,cover=155.724
				28:leaf=-0.0946874,cover=22.8799
			14:[Li_Shi_Yu_Qi_Ci_Shu<2.5] yes=29,no=30,missing=30,gain=5.69458,cover=44.6558
				29:leaf=0.0377954,cover=37.7514
				30:leaf=-0.0557401,cover=6.90434
booster[27]:
0:[Di_Qu_=Ji_Lin_Fen_Bu<0.5] yes=1,no=2,missing=1,gain=31.3362,cover=3152.55
	1:[Di_Qu_=Shan_Dong_Fen_Bu<579.5] yes=3,no=4,missing=3,gain=24.2815,cover=2729.96
		3:[Sheng_Yu_Li_Xi_(Yuan<311.5] yes=7,no=8,missing=7,gain=8.86381,cover=902.411
			7:[Sheng_Yu_Ben_Jin_(Yuan<150.5] yes=15,no=16,missing=15,gain=17.2322,cover=493.364
				15:leaf=-0.000337591,cover=374.163
				16:leaf=-0.0438606,cover=119.201
			8:[Dao_Qi_Ri<16056] yes=17,no=18,missing=18,gain=11.5652,cover=409.047
				17:leaf=0.0235952,cover=232.235
				18:leaf=-0.0102733,cover=176.812
		4:[Di_Qu_=Shang_Hai_Fen_Bu<1.5] yes=9,no=10,missing=9,gain=23.2219,cover=1827.55
			9:[He_Tong_Li_Lu<305000] yes=19,no=20,missing=19,gain=13.2834,cover=1618.54
				19:leaf=-0.0221203,cover=1370.46
				20:leaf=-0.0472873,cover=248.072
			10:[Di_Qu_=Shan_Xi_Fen_Bu<2006.5] yes=21,no=22,missing=22,gain=5.47714,cover=209.017
				21:leaf=-0.0080601,cover=96.5437
				22:leaf=0.0242796,cover=112.474
	2:[Di_Qu_=Yan_Xi_Fen_Bu<429.5] yes=5,no=6,missing=6,gain=8.37299,cover=422.583
		5:[Dao_Qi_Ri<49024] yes=11,no=12,missing=12,gain=11.4501,cover=19.7544
			11:[Dao_Qi_Ri<8631.5] yes=23,no=24,missing=24,gain=7.12201,cover=15.1309
				23:leaf=-0.014536,cover=7.35931
				24:leaf=-0.150141,cover=7.77155
			12:[Di_Qu_=Yan_Dong_Fen_Bu<6185] yes=25,no=26,missing=25,gain=3.52146,cover=4.62359
				25:leaf=0.139708,cover=2.51788
				26:leaf=-0.0167865,cover=2.10571
		6:[Di_Qu_=An_Hui_Fen_Bu<16000.5] yes=13,no=14,missing=13,gain=8.43705,cover=402.829
			13:[Di_Qu_=Yan_Xi_Fen_Bu<572] yes=27,no=28,missing=28,gain=7.67313,cover=396.003
				27:leaf=0.11488,cover=7.21347
				28:leaf=0.016982,cover=388.789
			14:[Di_Qu_=Si_Chuan_Fen_Bu<6862.5] yes=29,no=30,missing=30,gain=1.56192,cover=6.82583
				29:leaf=0.00511928,cover=1.42832
				30:leaf=-0.10712,cover=5.39751
booster[28]:
0:[Di_Qu_=Yun_Nan_Fen_Bu<1.5] yes=1,no=2,missing=1,gain=26.4017,cover=3122.67
	1:[Di_Qu_=Nan_Jing_Fen_Bu<0.5] yes=3,no=4,missing=3,gain=22.021,cover=2509.13
		3:[Di_Qu_=Si_Chuan_Fen_Bu<4897.5] yes=7,no=8,missing=7,gain=20.5037,cover=2369.96
			7:[Li_Shi_Yu_Qi_Ci_Shu<3.5] yes=15,no=16,missing=16,gain=15.772,cover=1828.72
				15:leaf=-0.0109131,cover=1799.07
				16:leaf=-0.0832951,cover=29.6452
			8:[Dao_Qi_Ri<98532.5] yes=17,no=18,missing=17,gain=18.3412,cover=541.247
				17:leaf=-0.0517047,cover=285.026
				18:leaf=-0.0147864,cover=256.221
		4:[Di_Qu_=Yan_Dong_Fen_Bu<8006.5] yes=9,no=10,missing=10,gain=8.47526,cover=139.169
			9:[Li_Shi_Zui_Chang_Yu_Qi_Tian_Shu<85975.5] yes=19,no=20,missing=19,gain=4.74688,cover=95.1975
				19:leaf=-0.00169773,cover=84.2864
				20:leaf=0.0657263,cover=10.9111
			10:[He_Tong_Li_Lu<75000] yes=21,no=22,missing=21,gain=5.87124,cover=43.9719
				21:leaf=0.0970705,cover=20.6537
				22:leaf=0.0234021,cover=23.3182
	2:[Li_Shi_Yu_Qi_Ci_Shu<1.5] yes=5,no=6,missing=6,gain=5.78905,cover=613.542
		5:[Di_Qu_=Yan_Dong_Fen_Bu<11662.5] yes=11,no=12,missing=11,gain=7.08282,cover=161.814
			11:[Li_Shi_Zui_Chang_Yu_Qi_Tian_Shu<2441] yes=23,no=24,missing=24,gain=8.15913,cover=155.286
				23:leaf=-0.0196349,cover=27.8949
				24:leaf=0.0394765,cover=127.391
			12:[Dao_Qi_Ri<2490] yes=25,no=26,missing=26,gain=1.85974,cover=6.52842
				25:leaf=0.0307978,cover=1.01643
				26:leaf=-0.0915222,cover=5.51199
		6:[He_Tong_Jin_E_(Yuan<1.5] yes=13,no=14,missing=14,gain=6.36891,cover=451.728
			13:[Di_Qu_=Yan_Xi_Fen_Bu<684] yes=27,no=28,missing=28,gain=5.50907,cover=232.051
				27:leaf=-0.0338474,cover=21.0298
				28:leaf=0.0187853,cover=211.021
			14:[Sheng_Yu_Li_Xi_(Yuan<161475] yes=29,no=30,missing=30,gain=5.72511,cover=219.678
				29:leaf=-0.0143932,cover=203.762
				30:leaf=0.0461891,cover=15.9158
booster[29]:
0:[Di_Qu_=Shang_Hai_Fen_Bu<-1.5] yes=1,no=2,missing=1,gain=24.1512,cover=3098.04
	1:[Di_Qu_=An_Hui_Fen_Bu<19455.5] yes=3,no=4,missing=3,gain=12.6302,cover=1519.65
		3:[Di_Qu_=Shan_Xi_Fen_Bu<10287.5] yes=7,no=8,missing=8,gain=15.0983,cover=1463.4
			7:[He_Tong_Li_Lu<165000] yes=15,no=16,missing=15,gain=18.8005,cover=1107.15
				15:leaf=-0.0134365,cover=754.777
				16:leaf=-0.0414163,cover=352.369
			8:[He_Tong_Li_Lu<285000] yes=17,no=18,missing=17,gain=8.35705,cover=356.25
				17:leaf=-0.00695331,cover=276.473
				18:leaf=0.0295951,cover=79.7776
		4:[Sheng_Yu_Ben_Jin_(Yuan<239912] yes=9,no=10,missing=10,gain=4.61969,cover=56.2488
			9:[Di_Qu_=Shan_Dong_Fen_Bu<895.5] yes=19,no=20,missing=19,gain=3.05266,cover=46.7611
				19:leaf=-0.00611893,cover=5.51939
				20:leaf=-0.0863637,cover=41.2417
			10:[Li_Shi_Zui_Chang_Yu_Qi_Tian_Shu<267832] yes=21,no=22,missing=22,gain=7.12133,cover=9.48773
				21:leaf=0.138241,cover=1.79293
				22:leaf=-0.0453025,cover=7.69479
	2:[Di_Qu_=An_Hui_Fen_Bu<15541.5] yes=5,no=6,missing=5,gain=14.9603,cover=1578.4
		5:[Li_Shi_Yu_Qi_Ci_Shu<3.5] yes=11,no=12,missing=12,gain=10.3452,cover=1510.23
			11:[Di_Qu_=Dong_Wan_Fen_Bu<1.5] yes=23,no=24,missing=24,gain=8.93291,cover=1496.74
				23:leaf=-0.00652446,cover=663.748
				24:leaf=0.00901592,cover=832.988
			12:[He_Tong_Li_Lu<40000] yes=25,no=26,missing=25,gain=1.65964,cover=13.4982
				25:leaf=0.0190146,cover=1.13324
				26:leaf=-0.0928079,cover=12.365
		6:[Di_Qu_=Yun_Nan_Fen_Bu<8] yes=13,no=14,missing=14,gain=7.07526,cover=68.1643
			13:[Dao_Qi_Ri<1476] yes=27,no=28,missing=27,gain=7.40823,cover=55.6667
				27:leaf=-0.00556836,cover=16.9241
				28:leaf=-0.0849172,cover=38.7426
			14:[Sheng_Yu_Li_Xi_(Yuan<18286.5] yes=29,no=30,missing=30,gain=16.0696,cover=12.4975
				29:leaf=0.231142,cover=1.87121
				30:leaf=-0.033355,cover=10.6263
booster[30]:
0:[Di_Qu_=Shang_Hai_Fen_Bu<1.5] yes=1,no=2,missing=1,gain=20.3825,cover=3072.72
	1:[Di_Qu_=An_Hui_Fen_Bu<15541.5] yes=3,no=4,missing=3,gain=17.9484,cover=2617.33
		3:[Di_Qu_=Shan_Xi_Fen_Bu<10518.5] yes=7,no=8,missing=8,gain=15.9732,cover=2490.88
			7:[He_Tong_Li_Lu<305000] yes=15,no=16,missing=15,gain=18.0385,cover=1699.18
				15:leaf=-0.0120877,cover=1527.14
				16:leaf=-0.0461766,cover=172.039
			8:[Di_Qu_=Shan_Xi_Fen_Bu<10871.5] yes=17,no=18,missing=18,gain=12.7199,cover=791.709
				17:leaf=0.168803,cover=3.5255
				18:leaf=0.000669219,cover=788.183
		4:[Dao_Qi_Ri<1602.5] yes=9,no=10,missing=9,gain=7.7063,cover=126.443
			9:[Di_Qu_=Yan_Dong_Fen_Bu<5040.5] yes=19,no=20,missing=20,gain=5.8253,cover=26.4736
				19:leaf=-0.0399236,cover=15.1911
				20:leaf=0.0514036,cover=11.2825
			10:[Dao_Qi_Ri<481383] yes=21,no=22,missing=21,gain=6.80938,cover=99.9696
				21:leaf=-0.0657301,cover=97.2724
				22:leaf=0.0762232,cover=2.69722
	2:[Di_Qu_=Shang_Hai_Fen_Bu<4.5] yes=5,no=6,missing=6,gain=4.43401,cover=455.397
		5:[Sheng_Yu_Ben_Jin_(Yuan<30502.5] yes=11,no=12,missing=12,gain=4.33793,cover=445.159
			11:[Sheng_Yu_Ben_Jin_(Yuan<18499.5] yes=23,no=24,missing=24,gain=10.8889,cover=215.58
				23:leaf=0.0214723,cover=124.16
				24:leaf=-0.0237858,cover=91.4198
			12:[Di_Qu_=Si_Chuan_Fen_Bu<4596.5] yes=25,no=26,missing=25,gain=8.66598,cover=229.579
				25:leaf=0.035744,cover=152.488
				26:leaf=-0.00528813,cover=77.0918
		6:[Sheng_Yu_Li_Xi_(Yuan<144005] yes=13,no=14,missing=14,gain=5.17621,cover=10.2381
			13:[Li_Shi_Zui_Chang_Yu_Qi_Tian_Shu<45382.5] yes=27,no=28,missing=28,gain=6.93691,cover=8.69191
				27:leaf=-0.00744737,cover=5.59975
				28:leaf=-0.180146,cover=3.09215
			14:leaf=0.0827707,cover=1.5462
booster[31]:
0:[Di_Qu_=Ji_Lin_Fen_Bu<0.5] yes=1,no=2,missing=1,gain=18.8469,cover=3050.43
	1:[Di_Qu_=Shan_Dong_Fen_Bu<579.5] yes=3,no=4,missing=3,gain=17.0895,cover=2632.58
		3:[Sheng_Yu_Li_Xi_(Yuan<556.5] yes=7,no=8,missing=7,gain=7.55691,cover=888.361
			7:[Sheng_Yu_Ben_Jin_(Yuan<907] yes=15,no=16,missing=15,gain=13.2529,cover=586.386
				15:leaf=5.79944e-05,cover=499.397
				16:leaf=-0.0420321,cover=86.9884
			8:[Dao_Qi_Ri<16056] yes=17,no=18,missing=17,gain=12.6729,cover=301.976
				17:leaf=0.0336388,cover=150.597
				18:leaf=-0.00722587,cover=151.379
		4:[Di_Qu_=Shang_Hai_Fen_Bu<1.5] yes=9,no=10,missing=9,gain=13.9606,cover=1744.22
			9:[He_Tong_Li_Lu<145000] yes=19,no=20,missing=19,gain=9.73798,cover=1536.73
				19:leaf=-0.0126537,cover=837.264
				20:leaf=-0.028661,cover=699.464
			10:[Di_Qu_=Shan_Dong_Fen_Bu<1350] yes=21,no=22,missing=22,gain=4.89848,cover=207.492
				21:leaf=-0.0167777,cover=58.1604
				22:leaf=0.0172108,cover=149.331
	2:[Di_Qu_=Yan_Xi_Fen_Bu<18947.5] yes=5,no=6,missing=5,gain=6.83808,cover=417.846
		5:[Dao_Qi_Ri<145352] yes=11,no=12,missing=12,gain=7.36933,cover=409.988
			11:[Di_Qu_=Yan_Xi_Fen_Bu<398] yes=23,no=24,missing=24,gain=8.32185,cover=380.883
				23:leaf=-0.0587653,cover=15.8688
				24:leaf=0.0131152,cover=365.014
			12:[Di_Qu_=Yan_Xi_Fen_Bu<6250] yes=25,no=26,missing=25,gain=6.79496,cover=29.105
				25:leaf=0.098671,cover=17.6469
				26:leaf=0.000756148,cover=11.458
		6:[Di_Qu_=Yan_Dong_Fen_Bu<75.5] yes=13,no=14,missing=13,gain=5.14736,cover=7.85815
			13:[Di_Qu_=Si_Chuan_Fen_Bu<2257.5] yes=27,no=28,missing=28,gain=0.817847,cover=6.62088
				27:leaf=-0.0315389,cover=1.94864
				28:leaf=-0.129435,cover=4.67223
			14:leaf=0.0722734,cover=1.23727
booster[32]:
0:[Di_Qu_=An_Hui_Fen_Bu<15541.5] yes=1,no=2,missing=1,gain=16.4705,cover=3027.95
	1:[Di_Qu_=Shang_Hai_Fen_Bu<-1.5] yes=3,no=4,missing=3,gain=16.2942,cover=2901.01
		3:[Sheng_Yu_Ben_Jin_(Yuan<8377] yes=7,no=8,missing=8,gain=9.72811,cover=1407.84
			7:[Di_Qu_=Yan_Xi_Fen_Bu<64] yes=15,no=16,missing=16,gain=8.20755,cover=250.654
				15:leaf=0.125733,cover=2.33799
				16:leaf=-0.0330414,cover=248.316
			8:[Dao_Qi_Ri<17680] yes=17,no=18,missing=17,gain=11.6627,cover=1157.19
				17:leaf=0.00758676,cover=300.255
				18:leaf=-0.0152927,cover=856.931
		4:[Li_Shi_Yu_Qi_Ci_Shu<3.5] yes=9,no=10,missing=10,gain=8.9122,cover=1493.17
			9:[Li_Lu_Lei_Xing_=Gu_Ding<40.5] yes=19,no=20,missing=19,gain=8.61635,cover=1480.33
				19:leaf=-0.00222526,cover=1070.54
				20:leaf=0.0148095,cover=409.79
			10:[He_Tong_Li_Lu<140000] yes=21,no=22,missing=21,gain=1.59955,cover=12.8425
				21:leaf=-0.0275715,cover=5.17565
				22:leaf=-0.105121,cover=7.66682
	2:[Dao_Qi_Ri<1602.5] yes=5,no=6,missing=5,gain=5.51487,cover=126.94
		5:[Di_Qu_=Yan_Xi_Fen_Bu<11040] yes=11,no=12,missing=11,gain=5.64452,cover=26.6522
			11:[Di_Qu_=An_Hui_Fen_Bu<50112] yes=23,no=24,missing=24,gain=5.29153,cover=24.1642
				23:leaf=0.0133743,cover=16.8421
				24:leaf=-0.0834754,cover=7.32206
			12:[Sheng_Yu_Li_Xi_(Yuan<22623.5] yes=25,no=26,missing=25,gain=5.82134,cover=2.48807
				25:leaf=0.223143,cover=1.1078
				26:leaf=-0.025238,cover=1.38027
		6:[Dao_Qi_Ri<185326] yes=13,no=14,missing=14,gain=6.12779,cover=100.288
			13:[Dao_Qi_Ri<6051] yes=27,no=28,missing=28,gain=2.49201,cover=78.3673
				27:leaf=-0.0294406,cover=16.9698
				28:leaf=-0.075183,cover=61.3975
			14:[Di_Qu_=Yan_Dong_Fen_Bu<9784.5] yes=29,no=30,missing=30,gain=3.25679,cover=21.9203
				29:leaf=0.0447323,cover=7.38362
				30:leaf=-0.0326418,cover=14.5367
booster[33]:
0:[Di_Qu_=Ji_Lin_Fen_Bu<0.5] yes=1,no=2,missing=1,gain=14.6388,cover=3010.77
	1:[Di_Qu_=Yan_Xi_Fen_Bu<792.5] yes=3,no=4,missing=3,gain=13.6007,cover=2594.52
		3:[Di_Qu_=An_Hui_Fen_Bu<7253] yes=7,no=8,missing=7,gain=9.60512,cover=1087.27
			7:[Li_Shi_Yu_Qi_Ci_Shu<3.5] yes=15,no=16,missing=16,gain=8.79057,cover=1027.1
				15:leaf=0.0027661,cover=1012.12
				16:leaf=-0.0719793,cover=14.983
			8:[Dao_Qi_Ri<88484] yes=17,no=18,missing=18,gain=8.06061,cover=60.176
				17:leaf=-0.0602978,cover=44.7803
				18:leaf=0.0221772,cover=15.3957
		4:[Li_Shi_Zui_Chang_Yu_Qi_Tian_Shu<185300] yes=9,no=10,missing=9,gain=10.6008,cover=1507.25
			9:[He_Tong_Li_Lu<305000] yes=19,no=20,missing=19,gain=14.3388,cover=1426.65
				19:leaf=-0.0135037,cover=1245.23
				20:leaf=-0.0435534,cover=181.418
			10:[Di_Qu_=Yan_Dong_Fen_Bu<8891.5] yes=21,no=22,missing=22,gain=9.90956,cover=80.5954
				21:leaf=0.061873,cover=32.1701
				22:leaf=-0.00892151,cover=48.4252
	2:[Di_Qu_=Yan_Xi_Fen_Bu<18947.5] yes=5,no=6,missing=5,gain=5.77965,cover=416.247
		5:[Dao_Qi_Ri<145352] yes=11,no=12,missing=12,gain=6.06559,cover=408.696
			11:[Di_Qu_=Dong_Wan_Fen_Bu<3.5] yes=23,no=24,missing=23,gain=7.62085,cover=379.616
				23:leaf=0.0120463,cover=365.452
				24:leaf=-0.0603384,cover=14.1635
			12:[Di_Qu_=Yan_Xi_Fen_Bu<6250] yes=25,no=26,missing=25,gain=5.57142,cover=29.0809
				25:leaf=0.0895793,cover=17.6562
				26:leaf=0.000832191,cover=11.4247
		6:[Di_Qu_=Yan_Dong_Fen_Bu<75.5] yes=13,no=14,missing=13,gain=4.54541,cover=7.55018
			13:[Di_Qu_=Si_Chuan_Fen_Bu<2257.5] yes=27,no=28,missing=28,gain=0.771823,cover=6.31652
				27:leaf=-0.0293264,cover=1.93419
				28:leaf=-0.124121,cover=4.38233
			14:leaf=0.0677033,cover=1.23366
booster[34]:
0:[Di_Qu_=Si_Chuan_Fen_Bu<4897.5] yes=1,no=2,missing=1,gain=13.9862,cover=2995.97
	1:[Li_Shi_Yu_Qi_Ci_Shu<3.5] yes=3,no=4,missing=4,gain=13.6939,cover=2363.65
		3:[He_Tong_Jin_E_(Yuan<1.5] yes=7,no=8,missing=8,gain=13.5079,cover=2336.69
			7:[Di_Qu_=Jiang_Xi_Fen_Bu<1.5] yes=15,no=16,missing=15,gain=11.8095,cover=1067.23
				15:leaf=0.020276,cover=404.687
				16:leaf=-0.00138646,cover=662.547
			8:[Di_Qu_=Shang_Hai_Fen_Bu<-1.5] yes=17,no=18,missing=17,gain=12.6174,cover=1269.46
				17:leaf=-0.0191649,cover=586.375
				18:leaf=0.000822015,cover=683.081
		4:[Li_Lu_Lei_Xing_=Gu_Ding<41.5] yes=9,no=10,missing=9,gain=3.26033,cover=26.9644
			9:[Di_Qu_=Yan_Xi_Fen_Bu<4588] yes=19,no=20,missing=19,gain=1.30992,cover=18.6541
				19:leaf=-0.10333,cover=16.4917
				20:leaf=-0.0136574,cover=2.16237
			10:[Di_Qu_=Bei_Jing_Fen_Bu<0.5] yes=21,no=22,missing=22,gain=3.93093,cover=8.31029
				21:leaf=-0.0908051,cover=3.15323
				22:leaf=0.0355069,cover=5.15706
	2:[Li_Shi_Zui_Chang_Yu_Qi_Tian_Shu<191166] yes=5,no=6,missing=5,gain=13.3128,cover=632.321
		5:[He_Tong_Li_Lu<265000] yes=11,no=12,missing=11,gain=13.0342,cover=553.409
			11:[Di_Qu_=Yan_Dong_Fen_Bu<3994.5] yes=23,no=24,missing=23,gain=7.00635,cover=411.447
				23:leaf=-0.00289237,cover=214.76
				24:leaf=-0.0289968,cover=196.687
			12:[Dao_Qi_Ri<351885] yes=25,no=26,missing=25,gain=10.2608,cover=141.962
				25:leaf=-0.0553005,cover=137.973
				26:leaf=0.0924484,cover=3.98944
		6:[Di_Qu_=Yan_Dong_Fen_Bu<9068.5] yes=13,no=14,missing=14,gain=17.2492,cover=78.9114
			13:[Di_Qu_=Si_Chuan_Fen_Bu<10091.5] yes=27,no=28,missing=28,gain=8.74238,cover=31.8288
				27:leaf=0.0264213,cover=18.0007
				28:leaf=0.13202,cover=13.8281
			14:[Dao_Qi_Ri<325718] yes=29,no=30,missing=29,gain=7.96944,cover=47.0827
				29:leaf=-0.0543791,cover=26.6455
				30:leaf=0.0270471,cover=20.4372
booster[35]:
0:[Di_Qu_=An_Hui_Fen_Bu<15541.5] yes=1,no=2,missing=1,gain=12.5087,cover=2982.23
	1:[Di_Qu_=Jiang_Xi_Fen_Bu<1.5] yes=3,no=4,missing=3,gain=12.4857,cover=2863.01
		3:[He_Tong_Jin_E_(Yuan<1.5] yes=7,no=8,missing=8,gain=14.9769,cover=1169.45
			7:[Di_Qu_=An_Hui_Fen_Bu<308] yes=15,no=16,missing=16,gain=9.04344,cover=508.877
				15:leaf=-0.0607209,cover=13.6485
				16:leaf=0.019128,cover=495.228
			8:[He_Tong_Li_Lu<445000] yes=17,no=18,missing=17,gain=8.0509,cover=660.576
				17:leaf=-0.0042893,cover=647.277
				18:leaf=-0.0801636,cover=13.2995
		4:[Sheng_Yu_Li_Xi_(Yuan<298862] yes=9,no=10,missing=9,gain=11.7672,cover=1693.56
			9:[Di_Qu_=Yan_Dong_Fen_Bu<9986.5] yes=19,no=20,missing=19,gain=11.5789,cover=1682.91
				19:leaf=-0.00800175,cover=1580.95
				20:leaf=-0.0426263,cover=101.959
			10:[Di_Qu_=Yan_Dong_Fen_Bu<8583.5] yes=21,no=22,missing=22,gain=8.23162,cover=10.6507
				21:leaf=0.223656,cover=2.36384
				22:leaf=0.0328506,cover=8.28688
	2:[Dao_Qi_Ri<1602.5] yes=5,no=6,missing=5,gain=4.85923,cover=119.22
		5:[Di_Qu_=Yan_Xi_Fen_Bu<11040] yes=11,no=12,missing=11,gain=4.77919,cover=26.1024
			11:[Di_Qu_=An_Hui_Fen_Bu<50112] yes=23,no=24,missing=24,gain=4.76089,cover=23.4934
				23:leaf=0.0147542,cover=16.6737
				24:leaf=-0.0791607,cover=6.81969
			12:[Sheng_Yu_Li_Xi_(Yuan<19426] yes=25,no=26,missing=26,gain=7.39625,cover=2.60904
				25:leaf=0.238076,cover=1.00665
				26:leaf=-0.0329152,cover=1.60239
		6:[Di_Qu_=Yun_Nan_Fen_Bu<-1.5] yes=13,no=14,missing=13,gain=5.16515,cover=93.1177
			13:[Di_Qu_=Bei_Jing_Fen_Bu<-1.5] yes=27,no=28,missing=27,gain=4.96275,cover=51.6123
				27:leaf=-0.0358046,cover=46.7736
				28:leaf=0.0624905,cover=4.83871
			14:[Di_Qu_=Shan_Xi_Fen_Bu<84905.5] yes=29,no=30,missing=29,gain=2.19853,cover=41.5054
				29:leaf=-0.0773119,cover=40.4657
				30:leaf=0.0410956,cover=1.03966
booster[36]:
0:[Di_Qu_=Bei_Jing_Fen_Bu<0] yes=1,no=2,missing=1,gain=11.8047,cover=2972.94
	1:[Di_Qu_=Dong_Wan_Fen_Bu<1.5] yes=3,no=4,missing=3,gain=12.0893,cover=2472.69
		3:[Sheng_Yu_Ben_Jin_(Yuan<390.5] yes=7,no=8,missing=7,gain=10.2092,cover=2126.8
			7:[Di_Qu_=Shan_Xi_Fen_Bu<315.5] yes=15,no=16,missing=16,gain=11.8371,cover=538.246
				15:leaf=-0.0485968,cover=42.4199
				16:leaf=0.00585032,cover=495.826
			8:[He_Tong_Li_Lu<95000] yes=17,no=18,missing=17,gain=8.76214,cover=1588.55
				17:leaf=-0.00577542,cover=672.587
				18:leaf=-0.0208146,cover=915.962
		4:[Di_Qu_=Si_Chuan_Fen_Bu<6142.5] yes=9,no=10,missing=9,gain=7.34193,cover=345.894
			9:[Di_Qu_=Nan_Jing_Fen_Bu<2.5] yes=19,no=20,missing=19,gain=5.29041,cover=330.799
				19:leaf=0.00526748,cover=328.829
				20:leaf=0.139392,cover=1.96967
			10:[Li_Shi_Zui_Chang_Yu_Qi_Tian_Shu<163010] yes=21,no=22,missing=21,gain=2.5939,cover=15.0956
				21:leaf=0.101414,cover=10.4261
				22:leaf=0.0104826,cover=4.66952
	2:[Di_Qu_=Si_Chuan_Fen_Bu<4432.5] yes=5,no=6,missing=6,gain=6.21619,cover=500.251
		5:[Di_Qu_=Yan_Xi_Fen_Bu<338] yes=11,no=12,missing=12,gain=7.09482,cover=257.908
			11:[He_Tong_Li_Lu<15000] yes=23,no=24,missing=23,gain=3.91728,cover=7.9491
				23:leaf=0.0372872,cover=2.09064
				24:leaf=-0.105288,cover=5.85846
			12:[Di_Qu_=Shan_Dong_Fen_Bu<760] yes=25,no=26,missing=26,gain=7.49137,cover=249.959
				25:leaf=-0.0363694,cover=18.7516
				26:leaf=0.0280082,cover=231.207
		6:[Dao_Qi_Ri<20033] yes=13,no=14,missing=13,gain=8.07796,cover=242.343
			13:[Sheng_Yu_Ben_Jin_(Yuan<1037] yes=27,no=28,missing=28,gain=6.96537,cover=89.3071
				27:leaf=-0.0442189,cover=12.8734
				28:leaf=0.0329757,cover=76.4338
			14:[Dao_Qi_Ri<20976] yes=29,no=30,missing=30,gain=9.06735,cover=153.036
				29:leaf=-0.14287,cover=4.45775
				30:leaf=-0.0114573,cover=148.578
booster[37]:
0:[Li_Shi_Yu_Qi_Ci_Shu<3.5] yes=1,no=2,missing=2,gain=10.6864,cover=2957.36
	1:[Di_Qu_=Si_Chuan_Fen_Bu<4897.5] yes=3,no=4,missing=3,gain=10.0874,cover=2920.49
		3:[He_Tong_Jin_E_(Yuan<1.5] yes=7,no=8,missing=8,gain=9.67491,cover=2317.93
			7:[Di_Qu_=An_Hui_Fen_Bu<314.5] yes=15,no=16,missing=16,gain=7.52153,cover=1065.14
				15:leaf=-0.0428356,cover=29.2162
				16:leaf=0.00779201,cover=1035.93
			8:[Dao_Qi_Ri<97146] yes=17,no=18,missing=17,gain=10.6266,cover=1252.79
				17:leaf=-0.00855281,cover=1199.12
				18:leaf=0.0365411,cover=53.661
		4:[Li_Shi_Zui_Chang_Yu_Qi_Tian_Shu<191166] yes=9,no=10,missing=9,gain=12.6797,cover=602.558
			9:[He_Tong_Li_Lu<265000] yes=19,no=20,missing=19,gain=10.5781,cover=525.598
				19:leaf=-0.0124596,cover=394.339
				20:leaf=-0.0451961,cover=131.26
			10:[Di_Qu_=Yan_Dong_Fen_Bu<9068.5] yes=21,no=22,missing=22,gain=14.278,cover=76.96
				21:leaf=0.0728125,cover=31.786
				22:leaf=-0.0136357,cover=45.174
	2:[Sheng_Yu_Li_Xi_(Yuan<28692.5] yes=5,no=6,missing=5,gain=4.67155,cover=36.8774
		5:[Di_Qu_=An_Hui_Fen_Bu<1239] yes=11,no=12,missing=12,gain=1.86995,cover=20.2535
			11:[Di_Qu_=Ji_Lin_Fen_Bu<-1.5] yes=23,no=24,missing=24,gain=3.70908,cover=4.48955
				23:leaf=0.0675675,cover=1.76973
				24:leaf=-0.0863149,cover=2.71982
			12:[Di_Qu_=Yan_Dong_Fen_Bu<358] yes=25,no=26,missing=26,gain=0.85834,cover=15.7639
				25:leaf=-0.00733879,cover=1.02154
				26:leaf=-0.1097,cover=14.7424
		6:[Di_Qu_=Yan_Dong_Fen_Bu<1095.5] yes=13,no=14,missing=14,gain=8.15147,cover=16.6239
			13:[Di_Qu_=Yan_Xi_Fen_Bu<1160.5] yes=27,no=28,missing=28,gain=1.1907,cover=2.1596
				27:leaf=0.179171,cover=1.0256
				28:leaf=0.024141,cover=1.134
			14:[Di_Qu_=An_Hui_Fen_Bu<6012.5] yes=29,no=30,missing=29,gain=4.75275,cover=14.4644
				29:leaf=-0.0866253,cover=9.00986
				30:leaf=0.0256431,cover=5.45449
booster[38]:
0:[He_Tong_Li_Lu<25000] yes=1,no=2,missing=1,gain=9.96156,cover=2948.87
	1:[Di_Qu_=Shan_Dong_Fen_Bu<1139.5] yes=3,no=4,missing=4,gain=8.9901,cover=323.06
		3:[Sheng_Yu_Li_Xi_(Yuan<19599.5] yes=7,no=8,missing=7,gain=10.0396,cover=118.019
			7:[Dao_Qi_Ri<20388.5] yes=15,no=16,missing=16,gain=5.75918,cover=106.829
				15:leaf=-0.0239779,cover=102.582
				16:leaf=0.0837384,cover=4.24731
			8:[Sheng_Yu_Li_Xi_(Yuan<19970] yes=17,no=18,missing=18,gain=5.60862,cover=11.1895
				17:leaf=0.15458,cover=4.28214
				18:leaf=0.0151748,cover=6.90732
		4:[Sheng_Yu_Li_Xi_(Yuan<19475.5] yes=9,no=10,missing=9,gain=10.1764,cover=205.042
			9:[Li_Lu_Lei_Xing_=Gu_Ding<34.5] yes=19,no=20,missing=19,gain=7.3198,cover=176.841
				19:leaf=0.0163098,cover=101.323
				20:leaf=0.057522,cover=75.5172
			10:[Dao_Qi_Ri<20531.5] yes=21,no=22,missing=21,gain=6.56782,cover=28.2011
				21:leaf=-0.057581,cover=20.9381
				22:leaf=0.0477039,cover=7.26303
	2:[Di_Qu_=Shang_Hai_Fen_Bu<1.5] yes=5,no=6,missing=5,gain=9.28952,cover=2625.81
		5:[Di_Qu_=Jiang_Xi_Fen_Bu<1.5] yes=11,no=12,missing=11,gain=7.8055,cover=2236.96
			11:[He_Tong_Li_Lu<385000] yes=23,no=24,missing=23,gain=8.68237,cover=858.42
				23:leaf=0.0019059,cover=795.359
				24:leaf=-0.0363609,cover=63.0618
			12:[Sheng_Yu_Li_Xi_(Yuan<279918] yes=25,no=26,missing=25,gain=12.1982,cover=1378.54
				25:leaf=-0.0141889,cover=1360.66
				26:leaf=0.066807,cover=17.8781
		6:[Li_Lu_Lei_Xing_=Gu_Ding<22.5] yes=13,no=14,missing=13,gain=6.61225,cover=388.849
			13:[Li_Shi_Zui_Chang_Yu_Qi_Tian_Shu<18094.5] yes=27,no=28,missing=28,gain=6.3477,cover=9.97531
				27:leaf=0.0689692,cover=1.95039
				28:leaf=-0.105588,cover=8.02493
			14:[Dao_Qi_Ri<2207.5] yes=29,no=30,missing=30,gain=6.48611,cover=378.873
				29:leaf=-0.0301788,cover=34.6551
				30:leaf=0.0146587,cover=344.218
booster[39]:
0:[Di_Qu_=An_Hui_Fen_Bu<15541.5] yes=1,no=2,missing=1,gain=9.45676,cover=2936.21
	1:[He_Tong_Jin_E_(Yuan<1.5] yes=3,no=4,missing=4,gain=9.11438,cover=2823.43
		3:[Di_Qu_=Jiang_Xi_Fen_Bu<1.5] yes=7,no=8,missing=7,gain=10.6449,cover=1300.39
			7:[Dao_Qi_Ri<340828] yes=15,no=16,missing=15,gain=7.95835,cover=509.08
				15:leaf=0.0137175,cover=504.84
				16:leaf=0.137762,cover=4.24049
			8:[Dao_Qi_Ri<369410] yes=17,no=18,missing=17,gain=7.3222,cover=791.314
				17:leaf=-0.0040375,cover=789.834
				18:leaf=0.168062,cover=1.48036
		4:[Di_Qu_=Shan_Xi_Fen_Bu<10399] yes=9,no=10,missing=10,gain=9.69231,cover=1523.03
			9:[He_Tong_Li_Lu<145000] yes=19,no=20,missing=19,gain=10.6677,cover=1048.24
				19:leaf=-0.00610735,cover=715.293
				20:leaf=-0.0277665,cover=332.945
			10:[Di_Qu_=Yan_Dong_Fen_Bu<12003] yes=21,no=22,missing=21,gain=6.61134,cover=474.793
				21:leaf=0.00699529,cover=450.309
				22:leaf=-0.0453643,cover=24.4841
	2:[Dao_Qi_Ri<1602.5] yes=5,no=6,missing=5,gain=4.24252,cover=112.783
		5:[Di_Qu_=Yan_Dong_Fen_Bu<5040.5] yes=11,no=12,missing=12,gain=4.35267,cover=25.5734
			11:[Di_Qu_=Shan_Dong_Fen_Bu<2002.5] yes=23,no=24,missing=23,gain=3.24959,cover=14.0712
				23:leaf=0.00696991,cover=8.62116
				24:leaf=-0.0861476,cover=5.45005
			12:[Di_Qu_=Shan_Dong_Fen_Bu<1143] yes=25,no=26,missing=25,gain=6.30313,cover=11.5022
				25:leaf=-0.0229203,cover=6.01157
				26:leaf=0.116069,cover=5.49061
		6:[Dao_Qi_Ri<283952] yes=13,no=14,missing=14,gain=4.99423,cover=87.2095
			13:[Di_Qu_=Yan_Xi_Fen_Bu<2795.5] yes=27,no=28,missing=27,gain=3.08085,cover=74.2111
				27:leaf=-0.0797155,cover=26.0159
				28:leaf=-0.0358941,cover=48.1952
			14:[Di_Qu_=Shan_Dong_Fen_Bu<12541.5] yes=29,no=30,missing=30,gain=5.34333,cover=12.9984
				29:leaf=0.112994,cover=2.9582
				30:leaf=-0.022663,cover=10.0402
booster[40]:
0:[Li_Shi_Yu_Qi_Ci_Shu<3.5] yes=1,no=2,missing=2,gain=9.19431,cover=2928.23
	1:[Di_Qu_=Yan_Dong_Fen_Bu<9986.5] yes=3,no=4,missing=3,gain=8.65734,cover=2893.06
		3:[Sheng_Yu_Ben_Jin_(Yuan<227980] yes=7,no=8,missing=7,gain=9.46737,cover=2689.05
			7:[Di_Qu_=Shang_Hai_Fen_Bu<-1.5] yes=15,no=16,missing=15,gain=9.47425,cover=2663.6
				15:leaf=-0.0079733,cover=1251.93
				16:leaf=0.00397187,cover=1411.66
			8:[Di_Qu_=Yan_Dong_Fen_Bu<8943.5] yes=17,no=18,missing=18,gain=8.3445,cover=25.4488
				17:leaf=0.106777,cover=14.2102
				18:leaf=-0.00631733,cover=11.2386
		4:[Dao_Qi_Ri<1743.5] yes=9,no=10,missing=10,gain=11.8311,cover=204.017
			9:[Di_Qu_=Si_Chuan_Fen_Bu<1684] yes=19,no=20,missing=19,gain=8.97714,cover=23.0159
				19:leaf=0.020812,cover=21.2629
				20:leaf=0.214186,cover=1.75306
			10:[Dao_Qi_Ri<48148.5] yes=21,no=22,missing=21,gain=6.32503,cover=181.001
				21:leaf=-0.0506102,cover=85.4588
				22:leaf=-0.0130915,cover=95.5426
	2:[Sheng_Yu_Li_Xi_(Yuan<28692.5] yes=5,no=6,missing=5,gain=4.42414,cover=35.17
		5:[Di_Qu_=An_Hui_Fen_Bu<1239] yes=11,no=12,missing=12,gain=1.80608,cover=18.9
			11:[Li_Shi_Zui_Chang_Yu_Qi_Tian_Shu<38314] yes=23,no=24,missing=24,gain=3.26808,cover=4.37993
				23:leaf=-0.0834335,cover=2.53251
				24:leaf=0.0614585,cover=1.84743
			12:[Di_Qu_=Yan_Dong_Fen_Bu<358] yes=25,no=26,missing=26,gain=0.838873,cover=14.52
				25:leaf=-0.00620634,cover=1.00269
				26:leaf=-0.107402,cover=13.5174
		6:[Di_Qu_=Yan_Dong_Fen_Bu<1095.5] yes=13,no=14,missing=14,gain=7.03726,cover=16.27
			13:[Di_Qu_=An_Hui_Fen_Bu<2354] yes=27,no=28,missing=28,gain=2.09516,cover=2.26986
				27:leaf=0.183901,cover=1.00806
				28:leaf=0.0104342,cover=1.2618
			14:[Di_Qu_=An_Hui_Fen_Bu<6012.5] yes=29,no=30,missing=29,gain=4.28191,cover=14.0002
				29:leaf=-0.0829056,cover=8.50629
				30:leaf=0.0244525,cover=5.4939
booster[41]:
0:[Di_Qu_=Ji_Lin_Fen_Bu<0.5] yes=1,no=2,missing=1,gain=8.09877,cover=2918.74
	1:[Di_Qu_=Shan_Dong_Fen_Bu<442.5] yes=3,no=4,missing=3,gain=8.88891,cover=2507.86
		3:[Sheng_Yu_Li_Xi_(Yuan<311.5] yes=7,no=8,missing=7,gain=8.43532,cover=816.835
			7:[Li_Shi_Zui_Chang_Yu_Qi_Tian_Shu<1223] yes=15,no=16,missing=15,gain=11.3739,cover=471.947
				15:leaf=0.00147448,cover=400.167
				16:leaf=-0.0414991,cover=71.7797
			8:[Di_Qu_=Shan_Dong_Fen_Bu<230] yes=17,no=18,missing=18,gain=10.4477,cover=344.888
				17:leaf=-0.0283935,cover=46.23
				18:leaf=0.0222676,cover=298.658
		4:[Dao_Qi_Ri<109861] yes=9,no=10,missing=9,gain=9.87838,cover=1691.03
			9:[He_Tong_Li_Lu<95000] yes=19,no=20,missing=19,gain=13.6564,cover=1411.51
				19:leaf=-0.0033523,cover=753.72
				20:leaf=-0.0230676,cover=657.787
			10:[Di_Qu_=An_Hui_Fen_Bu<4975.5] yes=21,no=22,missing=22,gain=14.6091,cover=279.521
				21:leaf=0.0542572,cover=53.9206
				22:leaf=-0.00324225,cover=225.6
	2:[Di_Qu_=Yan_Xi_Fen_Bu<398] yes=5,no=6,missing=6,gain=5.1701,cover=410.873
		5:[Dao_Qi_Ri<49695.5] yes=11,no=12,missing=12,gain=8.68239,cover=16.8845
			11:[Sheng_Yu_Ben_Jin_(Yuan<9571] yes=23,no=24,missing=24,gain=3.99381,cover=12.78
				23:leaf=-0.0136921,cover=5.54314
				24:leaf=-0.126255,cover=7.23687
			12:[Di_Qu_=Yan_Dong_Fen_Bu<6185] yes=25,no=26,missing=25,gain=2.81181,cover=4.10444
				25:leaf=0.13145,cover=2.13146
				26:leaf=-0.0144809,cover=1.97298
		6:[Di_Qu_=Yan_Xi_Fen_Bu<997] yes=13,no=14,missing=14,gain=5.81832,cover=393.989
			13:[Di_Qu_=An_Hui_Fen_Bu<2550] yes=27,no=28,missing=27,gain=10.5465,cover=34.0547
				27:leaf=0.0737362,cover=29.3347
				28:leaf=-0.0760899,cover=4.72008
			14:[Di_Qu_=Yan_Dong_Fen_Bu<1297] yes=29,no=30,missing=30,gain=5.68437,cover=359.934
				29:leaf=0.0421176,cover=43.5317
				30:leaf=0.00394065,cover=316.402
booster[42]:
0:[Li_Shi_Yu_Qi_Ci_Shu<3.5] yes=1,no=2,missing=2,gain=7.83413,cover=2908.71
	1:[Di_Qu_=An_Hui_Fen_Bu<5732] yes=3,no=4,missing=3,gain=7.89861,cover=2875.02
		3:[Sheng_Yu_Li_Xi_(Yuan<142106] yes=7,no=8,missing=7,gain=10.1027,cover=2428.05
			7:[Di_Qu_=Shan_Dong_Fen_Bu<4971.5] yes=15,no=16,missing=15,gain=7.3586,cover=2399.22
				15:leaf=0.0013242,cover=2163.3
				16:leaf=-0.0172389,cover=235.925
			8:[Di_Qu_=Yan_Xi_Fen_Bu<4232.5] yes=17,no=18,missing=18,gain=10.2485,cover=28.8322
				17:leaf=0.172708,cover=5.21586
				18:leaf=0.0267355,cover=23.6164
		4:[Dao_Qi_Ri<304850] yes=9,no=10,missing=10,gain=8.96491,cover=446.963
			9:[Di_Qu_=Yan_Dong_Fen_Bu<9549] yes=19,no=20,missing=19,gain=5.17197,cover=414.13
				19:leaf=-0.0126935,cover=333.857
				20:leaf=-0.0409052,cover=80.2734
			10:[Di_Qu_=Shan_Dong_Fen_Bu<12474] yes=21,no=22,missing=22,gain=8.62934,cover=32.8328
				21:leaf=0.0899932,cover=14.597
				22:leaf=-0.0108019,cover=18.2358
	2:[Sheng_Yu_Li_Xi_(Yuan<28692.5] yes=5,no=6,missing=5,gain=4.16614,cover=33.694
		5:[Di_Qu_=An_Hui_Fen_Bu<1239] yes=11,no=12,missing=12,gain=1.72208,cover=17.6791
			11:[Di_Qu_=Si_Chuan_Fen_Bu<1839] yes=23,no=24,missing=23,gain=3.05619,cover=4.29626
				23:leaf=-0.066979,cover=3.19939
				24:leaf=0.0817212,cover=1.09687
			12:[Di_Qu_=Yan_Dong_Fen_Bu<393.5] yes=25,no=26,missing=26,gain=0.73219,cover=13.3829
				25:leaf=-0.00944363,cover=1.06899
				26:leaf=-0.105305,cover=12.3139
		6:[Di_Qu_=Yan_Dong_Fen_Bu<1095.5] yes=13,no=14,missing=14,gain=6.11003,cover=16.0149
			13:[Li_Lu_Lei_Xing_=Gu_Ding<37] yes=27,no=28,missing=27,gain=2.34212,cover=2.38029
				27:leaf=-0.00840464,cover=1.02046
				28:leaf=0.165219,cover=1.35983
			14:[Di_Qu_=An_Hui_Fen_Bu<6012.5] yes=29,no=30,missing=30,gain=3.84296,cover=13.6346
				29:leaf=-0.0835587,cover=7.36786
				30:leaf=0.0176692,cover=6.26675
booster[43]:
0:[Di_Qu_=An_Hui_Fen_Bu<19635.5] yes=1,no=2,missing=1,gain=6.9797,cover=2902.55
	1:[Li_Lu_Lei_Xing_=Gu_Ding<35.5] yes=3,no=4,missing=3,gain=7.62324,cover=2820.85
		3:[Dao_Qi_Ri<-689] yes=7,no=8,missing=8,gain=9.20401,cover=1584.47
			7:[Di_Qu_=Shan_Dong_Fen_Bu<4244] yes=15,no=16,missing=15,gain=7.18164,cover=9.39962
				15:leaf=0.138239,cover=6.64766
				16:leaf=-0.0387306,cover=2.75195
			8:[He_Tong_Li_Lu<125000] yes=17,no=18,missing=17,gain=7.9353,cover=1575.07
				17:leaf=-0.000841279,cover=934.699
				18:leaf=-0.0152859,cover=640.374
		4:[He_Tong_Li_Lu<25000] yes=9,no=10,missing=9,gain=7.46849,cover=1236.38
			9:[Di_Qu_=Yan_Xi_Fen_Bu<325] yes=19,no=20,missing=19,gain=8.74284,cover=123.88
				19:leaf=0.0554955,cover=58.0495
				20:leaf=0.00245926,cover=65.83
			10:[Dao_Qi_Ri<110500] yes=21,no=22,missing=22,gain=9.54282,cover=1112.5
				21:leaf=-0.0036746,cover=827.49
				22:leaf=0.0175115,cover=285.01
	2:[Sheng_Yu_Li_Xi_(Yuan<19280.5] yes=5,no=6,missing=5,gain=7.15291,cover=81.7019
		5:[Di_Qu_=Shan_Dong_Fen_Bu<10835] yes=11,no=12,missing=12,gain=5.12302,cover=22.8227
			11:[Sheng_Yu_Li_Xi_(Yuan<10592.5] yes=23,no=24,missing=24,gain=5.62595,cover=13.3721
				23:leaf=0.010294,cover=9.78614
				24:leaf=0.145712,cover=3.58593
			12:[Dao_Qi_Ri<514148] yes=25,no=26,missing=26,gain=3.65239,cover=9.45067
				25:leaf=-0.0666646,cover=7.74602
				26:leaf=0.0686818,cover=1.70465
		6:[Di_Qu_=Shan_Dong_Fen_Bu<124219] yes=13,no=14,missing=14,gain=6.54626,cover=58.8791
			13:[Sheng_Yu_Ben_Jin_(Yuan<239912] yes=27,no=28,missing=28,gain=4.12438,cover=53.5795
				27:leaf=-0.0714515,cover=45.1655
				28:leaf=0.00419408,cover=8.41407
			14:[Di_Qu_=An_Hui_Fen_Bu<44978] yes=29,no=30,missing=30,gain=11.1003,cover=5.29957
				29:leaf=0.160176,cover=2.87252
				30:leaf=-0.089295,cover=2.42705
booster[44]:
0:[Li_Shi_Yu_Qi_Ci_Shu<3.5] yes=1,no=2,missing=2,gain=6.71222,cover=2896.52
	1:[Di_Qu_=Shang_Hai_Fen_Bu<-1.5] yes=3,no=4,missing=3,gain=6.53861,cover=2864.23
		3:[Di_Qu_=Shan_Xi_Fen_Bu<10287.5] yes=7,no=8,missing=8,gain=7.55922,cover=1359.63
			7:[Li_Shi_Yu_Qi_Ci_Shu<1.5] yes=15,no=16,missing=16,gain=11.3549,cover=1008.15
				15:leaf=-0.0278974,cover=284.938
				16:leaf=-0.00434975,cover=723.21
			8:[He_Tong_Li_Lu<285000] yes=17,no=18,missing=17,gain=5.67672,cover=351.482
				17:leaf=-0.00116721,cover=267.356
				18:leaf=0.0284798,cover=84.1266
		4:[He_Tong_Jin_E_(Yuan<6] yes=9,no=10,missing=10,gain=5.80028,cover=1504.6
			9:[Dao_Qi_Ri<325.5] yes=19,no=20,missing=20,gain=5.70363,cover=1501.09
				19:leaf=-0.0196691,cover=100.081
				20:leaf=0.00492886,cover=1401
			10:[Di_Qu_=Shan_Dong_Fen_Bu<1850] yes=21,no=22,missing=22,gain=1.45705,cover=3.51338
				21:leaf=-0.00576801,cover=1.11632
				22:leaf=-0.142907,cover=2.39706
	2:[Sheng_Yu_Li_Xi_(Yuan<28692.5] yes=5,no=6,missing=5,gain=3.88997,cover=32.2899
		5:[Di_Qu_=An_Hui_Fen_Bu<1239] yes=11,no=12,missing=12,gain=1.66797,cover=16.6053
			11:[Di_Qu_=Ji_Lin_Fen_Bu<-1.5] yes=23,no=24,missing=24,gain=2.99112,cover=4.22229
				23:leaf=0.0593123,cover=1.87097
				24:leaf=-0.0804747,cover=2.35131
			12:[Di_Qu_=Yan_Dong_Fen_Bu<393.5] yes=25,no=26,missing=26,gain=0.713937,cover=12.383
				25:leaf=-0.00864409,cover=1.05494
				26:leaf=-0.10342,cover=11.3281
		6:[Di_Qu_=Shan_Dong_Fen_Bu<1512.5] yes=13,no=14,missing=13,gain=5.35496,cover=15.6846
			13:[Li_Lu_Lei_Xing_=Gu_Ding<38.5] yes=27,no=28,missing=27,gain=2.42503,cover=2.5131
				27:leaf=-0.0130521,cover=1.06787
				28:leaf=0.156578,cover=1.44523
			14:[Di_Qu_=Yan_Dong_Fen_Bu<16773] yes=29,no=30,missing=30,gain=3.2228,cover=13.1715
				29:leaf=-0.0562682,cover=11.4526
				30:leaf=0.0662331,cover=1.71883
booster[45]:
0:[Di_Qu_=Ji_Lin_Fen_Bu<0.5] yes=1,no=2,missing=1,gain=6.06868,cover=2889.01
	1:[Di_Qu_=Yun_Nan_Fen_Bu<1.5] yes=3,no=4,missing=3,gain=7.04728,cover=2479.77
		3:[Di_Qu_=Si_Chuan_Fen_Bu<6780.5] yes=7,no=8,missing=7,gain=6.20379,cover=2137.96
			7:[Di_Qu_=Si_Chuan_Fen_Bu<6425] yes=15,no=16,missing=15,gain=9.19908,cover=1844.04
				15:leaf=-0.00445485,cover=1827.49
				16:leaf=0.0682972,cover=16.5497
			8:[Dao_Qi_Ri<226343] yes=17,no=18,missing=17,gain=14.2558,cover=293.924
				17:leaf=-0.0315966,cover=224.58
				18:leaf=0.0200319,cover=69.3448
		4:[Dao_Qi_Ri<15207.5] yes=9,no=10,missing=10,gain=5.03956,cover=341.804
			9:[Dao_Qi_Ri<12631.5] yes=19,no=20,missing=19,gain=12.7848,cover=128.835
				19:leaf=0.0121553,cover=111.36
				20:leaf=0.10214,cover=17.4748
			10:[Di_Qu_=Shan_Dong_Fen_Bu<1888.5] yes=21,no=22,missing=21,gain=9.82175,cover=212.969
				21:leaf=-0.0160124,cover=136.345
				22:leaf=0.0284894,cover=76.6245
	2:[Di_Qu_=Dong_Wan_Fen_Bu<3.5] yes=5,no=6,missing=5,gain=5.03083,cover=409.243
		5:[Di_Qu_=Yan_Xi_Fen_Bu<18947.5] yes=11,no=12,missing=11,gain=5.55416,cover=393.827
			11:[Di_Qu_=Yan_Xi_Fen_Bu<429.5] yes=23,no=24,missing=24,gain=4.67238,cover=386.899
				23:leaf=-0.0365053,cover=17.0938
				24:leaf=0.0156335,cover=369.805
			12:[Di_Qu_=Yan_Dong_Fen_Bu<75.5] yes=25,no=26,missing=25,gain=2.95486,cover=6.92812
				25:leaf=-0.0970977,cover=5.88212
				26:leaf=0.0498953,cover=1.046
		6:[Li_Shi_Zui_Chang_Yu_Qi_Tian_Shu<85393.5] yes=13,no=14,missing=13,gain=5.37215,cover=15.4164
			13:[Li_Shi_Zui_Chang_Yu_Qi_Tian_Shu<35012] yes=27,no=28,missing=28,gain=4.84397,cover=12.8969
				27:leaf=-0.0289032,cover=9.73651
				28:leaf=-0.162003,cover=3.16037
			14:[Di_Qu_=Shang_Hai_Fen_Bu<6] yes=29,no=30,missing=30,gain=0.00293581,cover=2.51954
				29:leaf=0.0820893,cover=1.37796
				30:leaf=0.0237456,cover=1.14158
booster[46]:
0:[Li_Shi_Yu_Qi_Ci_Shu<3.5] yes=1,no=2,missing=2,gain=5.65298,cover=2881.26
	1:[Di_Qu_=Si_Chuan_Fen_Bu<4897.5] yes=3,no=4,missing=3,gain=5.96486,cover=2850.35
		3:[Dao_Qi_Ri<78503.5] yes=7,no=8,missing=7,gain=7.53708,cover=2277.11
			7:[Dao_Qi_Ri<8686] yes=15,no=16,missing=15,gain=8.952,cover=2107.38
				15:leaf=0.00642076,cover=972.792
				16:leaf=-0.00664682,cover=1134.59
			8:[Sheng_Yu_Ben_Jin_(Yuan<43575] yes=17,no=18,missing=17,gain=8.9787,cover=169.73
				17:leaf=0.0801085,cover=21.5216
				18:leaf=0.0122015,cover=148.208
		4:[Dao_Qi_Ri<144012] yes=9,no=10,missing=9,gain=8.03959,cover=573.24
			9:[He_Tong_Li_Lu<215000] yes=19,no=20,missing=19,gain=8.88372,cover=400.114
				19:leaf=-0.00801348,cover=274.419
				20:leaf=-0.0400687,cover=125.695
			10:[Di_Qu_=An_Hui_Fen_Bu<17798] yes=21,no=22,missing=21,gain=5.44806,cover=173.126
				21:leaf=0.0135433,cover=156.003
				22:leaf=-0.0443933,cover=17.1232
	2:[Sheng_Yu_Li_Xi_(Yuan<28692.5] yes=5,no=6,missing=5,gain=3.66424,cover=30.91
		5:[Di_Qu_=An_Hui_Fen_Bu<1239] yes=11,no=12,missing=12,gain=1.59484,cover=15.5727
			11:[Di_Qu_=Si_Chuan_Fen_Bu<1839] yes=23,no=24,missing=23,gain=2.72582,cover=4.14017
				23:leaf=-0.0636141,cover=3.00405
				24:leaf=0.0769351,cover=1.13611
			12:[Di_Qu_=Yan_Dong_Fen_Bu<393.5] yes=25,no=26,missing=26,gain=0.694304,cover=11.4326
				25:leaf=-0.00792946,cover=1.04239
				26:leaf=-0.101556,cover=10.3902
		6:[Di_Qu_=Yan_Dong_Fen_Bu<1095.5] yes=13,no=14,missing=14,gain=5.01585,cover=15.3373
			13:[Di_Qu_=Shan_Dong_Fen_Bu<1739] yes=27,no=28,missing=28,gain=1.50558,cover=2.45019
				27:leaf=0.151062,cover=1.18398
				28:leaf=0.00756593,cover=1.26621
			14:[Di_Qu_=An_Hui_Fen_Bu<6012.5] yes=29,no=30,missing=29,gain=3.62972,cover=12.8871
				29:leaf=-0.0753383,cover=7.502
				30:leaf=0.0259199,cover=5.38511
booster[47]:
0:[He_Tong_Jin_E_(Yuan<1.5] yes=1,no=2,missing=2,gain=5.46692,cover=2877.27
	1:[Di_Qu_=Shan_Dong_Fen_Bu<4501.5] yes=3,no=4,missing=3,gain=9.01456,cover=1331.83
		3:[Di_Qu_=Jiang_Xi_Fen_Bu<1.5] yes=7,no=8,missing=7,gain=6.60145,cover=1071.18
			7:[Di_Qu_=An_Hui_Fen_Bu<308] yes=15,no=16,missing=16,gain=10.4229,cover=416.633
				15:leaf=-0.0750661,cover=10.9885
				16:leaf=0.0196714,cover=405.645
			8:[Dao_Qi_Ri<142008] yes=17,no=18,missing=17,gain=5.61844,cover=654.551
				17:leaf=-0.0005926,cover=638.782
				18:leaf=0.0580449,cover=15.769
		4:[Li_Shi_Zui_Chang_Yu_Qi_Tian_Shu<355224] yes=9,no=10,missing=10,gain=8.84026,cover=260.645
			9:[Di_Qu_=Yan_Dong_Fen_Bu<11843.5] yes=19,no=20,missing=19,gain=5.79314,cover=244.59
				19:leaf=-0.0124723,cover=215.135
				20:leaf=-0.0591925,cover=29.4545
			10:[Li_Lu_Lei_Xing_=Gu_Ding<39.5] yes=21,no=22,missing=21,gain=11.3479,cover=16.0552
				21:leaf=-0.0366806,cover=7.02592
				22:leaf=0.124947,cover=9.02928
	2:[Sheng_Yu_Li_Xi_(Yuan<138406] yes=5,no=6,missing=5,gain=8.13834,cover=1545.44
		5:[Di_Qu_=An_Hui_Fen_Bu<2007.5] yes=11,no=12,missing=11,gain=8.91919,cover=1447.32
			11:[Li_Shi_Zui_Chang_Yu_Qi_Tian_Shu<32513.5] yes=23,no=24,missing=23,gain=7.26634,cover=910.461
				23:leaf=-0.00467629,cover=807.796
				24:leaf=0.0234451,cover=102.664
			12:[Di_Qu_=Si_Chuan_Fen_Bu<6208] yes=25,no=26,missing=25,gain=7.91476,cover=536.863
				25:leaf=-0.0124003,cover=451.823
				26:leaf=-0.0455517,cover=85.0401
		6:[Di_Qu_=Yan_Dong_Fen_Bu<9583.5] yes=13,no=14,missing=13,gain=6.57175,cover=98.1165
			13:[Sheng_Yu_Ben_Jin_(Yuan<217650] yes=27,no=28,missing=27,gain=10.3627,cover=70.2033
				27:leaf=0.019352,cover=57.5857
				28:leaf=0.116868,cover=12.6176
			14:[Di_Qu_=An_Hui_Fen_Bu<7649] yes=29,no=30,missing=29,gain=3.75652,cover=27.9132
				29:leaf=0.0452563,cover=6.2193
				30:leaf=-0.0379237,cover=21.6939
booster[48]:
0:[He_Tong_Li_Lu<25000] yes=1,no=2,missing=1,gain=5.20225,cover=2872.31
	1:[Di_Qu_=Yan_Dong_Fen_Bu<715] yes=3,no=4,missing=3,gain=7.20515,cover=321.476
		3:[Di_Qu_=Yan_Xi_Fen_Bu<506.5] yes=7,no=8,missing=8,gain=10.4822,cover=191.954
			7:[Di_Qu_=Shan_Xi_Fen_Bu<344.5] yes=15,no=16,missing=15,gain=8.15251,cover=34.0552
				15:leaf=0.0379657,cover=11.8541
				16:leaf=-0.0617415,cover=22.2011
			8:[Sheng_Yu_Ben_Jin_(Yuan<5207] yes=17,no=18,missing=18,gain=6.09646,cover=157.899
				17:leaf=-0.00593033,cover=31.07
				18:leaf=0.0432806,cover=126.829
		4:[Di_Qu_=Shan_Dong_Fen_Bu<3475] yes=9,no=10,missing=10,gain=4.55425,cover=129.521
			9:[Di_Qu_=An_Hui_Fen_Bu<1270.5] yes=19,no=20,missing=19,gain=5.1266,cover=93.2668
				19:leaf=0.00642482,cover=42.2681
				20:leaf=-0.0403337,cover=50.9987
			10:[Di_Qu_=Si_Chuan_Fen_Bu<3008] yes=21,no=22,missing=21,gain=4.7857,cover=36.2547
				21:leaf=0.0378805,cover=30.5193
				22:leaf=-0.05544,cover=5.73544
	2:[Di_Qu_=Yan_Xi_Fen_Bu<729.5] yes=5,no=6,missing=6,gain=4.98798,cover=2550.83
		5:[Dao_Qi_Ri<302.5] yes=11,no=12,missing=11,gain=10.3209,cover=299.756
			11:[Di_Qu_=Shan_Dong_Fen_Bu<243] yes=23,no=24,missing=23,gain=5.08451,cover=47.0157
				23:leaf=-0.00273558,cover=25.5154
				24:leaf=-0.0680587,cover=21.5004
			12:[Sheng_Yu_Li_Xi_(Yuan<19197.5] yes=25,no=26,missing=26,gain=10.6297,cover=252.74
				25:leaf=0.0313517,cover=170.566
				26:leaf=-0.0122697,cover=82.1742
		6:[Di_Qu_=Shan_Xi_Fen_Bu<858.5] yes=13,no=14,missing=14,gain=8.91633,cover=2251.07
			13:[Sheng_Yu_Ben_Jin_(Yuan<132236] yes=27,no=28,missing=28,gain=6.83023,cover=224.018
				27:leaf=-0.0257858,cover=220.651
				28:leaf=0.101013,cover=3.36661
			14:[Di_Qu_=Shan_Xi_Fen_Bu<897.5] yes=29,no=30,missing=30,gain=10.6855,cover=2027.06
				29:leaf=0.108851,cover=7.58891
				30:leaf=-0.00292807,cover=2019.47
booster[49]:
0:[Li_Shi_Yu_Qi_Ci_Shu<3.5] yes=1,no=2,missing=2,gain=4.76892,cover=2868.78
	1:[Di_Qu_=An_Hui_Fen_Bu<5732] yes=3,no=4,missing=3,gain=5.06626,cover=2839.07
		3:[Di_Qu_=An_Hui_Fen_Bu<5598] yes=7,no=8,missing=7,gain=8.11495,cover=2406.97
			7:[Sheng_Yu_Li_Xi_(Yuan<142106] yes=15,no=16,missing=15,gain=6.63185,cover=2397.83
				15:leaf=-2.77286e-05,cover=2370.48
				16:leaf=0.0486262,cover=27.3506
			8:[Dao_Qi_Ri<2031] yes=17,no=18,missing=17,gain=5.67912,cover=9.13626
				17:leaf=-0.066986,cover=1.29323
				18:leaf=0.120776,cover=7.84303
		4:[Dao_Qi_Ri<173464] yes=9,no=10,missing=9,gain=5.93082,cover=432.1
			9:[Di_Qu_=Yan_Dong_Fen_Bu<4319] yes=19,no=20,missing=19,gain=4.87815,cover=295.056
				19:leaf=-0.00717775,cover=163.476
				20:leaf=-0.033049,cover=131.579
			10:[He_Tong_Li_Lu<445000] yes=21,no=22,missing=21,gain=6.30601,cover=137.045
				21:leaf=0.0153638,cover=116.694
				22:leaf=-0.0437254,cover=20.3507
	2:[Sheng_Yu_Li_Xi_(Yuan<41676] yes=5,no=6,missing=5,gain=3.44178,cover=29.7086
		5:[He_Tong_Li_Lu<95000] yes=11,no=12,missing=11,gain=1.31167,cover=17.8444
			11:[Di_Qu_=Nan_Jing_Fen_Bu<-1.5] yes=23,no=24,missing=24,gain=1.89289,cover=8.2821
				23:leaf=0.0482379,cover=1.51586
				24:leaf=-0.0539902,cover=6.76624
			12:[Di_Qu_=Si_Chuan_Fen_Bu<1054.5] yes=25,no=26,missing=26,gain=0.176351,cover=9.56227
				25:leaf=-0.0301529,cover=1.5677
				26:leaf=-0.098747,cover=7.99457
		6:[Sheng_Yu_Ben_Jin_(Yuan<60372.5] yes=13,no=14,missing=14,gain=7.16309,cover=11.8643
			13:[Dao_Qi_Ri<58781] yes=27,no=28,missing=28,gain=2.45623,cover=3.30525
				27:leaf=-0.0101851,cover=1.12059
				28:leaf=0.153551,cover=2.18466
			14:[Di_Qu_=Yun_Nan_Fen_Bu<4] yes=29,no=30,missing=30,gain=2.04506,cover=8.559
				29:leaf=0.0473021,cover=1.20748
				30:leaf=-0.0660451,cover=7.35152
booster[50]:
0:[Li_Lu_Lei_Xing_=Gu_Ding<35.5] yes=1,no=2,missing=1,gain=4.59142,cover=2865.03
	1:[Dao_Qi_Ri<-689] yes=3,no=4,missing=4,gain=7.52851,cover=1601.48
		3:[Di_Qu_=Shan_Dong_Fen_Bu<4244] yes=7,no=8,missing=7,gain=5.66263,cover=9.67414
			7:[Li_Shi_Zui_Chang_Yu_Qi_Tian_Shu<-3467] yes=15,no=16,missing=15,gain=5.25088,cover=7.01438
				15:leaf=-0.0193656,cover=1.78971
				16:leaf=0.16525,cover=5.22466
			8:[Di_Qu_=An_Hui_Fen_Bu<1764] yes=17,no=18,missing=18,gain=1.2536,cover=2.65976
				17:leaf=0.0327468,cover=1.04603
				18:leaf=-0.0759054,cover=1.61373
		4:[Dao_Qi_Ri<-316] yes=9,no=10,missing=10,gain=7.13799,cover=1591.81
			9:[Di_Qu_=Yan_Dong_Fen_Bu<1485] yes=19,no=20,missing=20,gain=0.638664,cover=7.0222
				19:leaf=-0.0136061,cover=1.08629
				20:leaf=-0.110859,cover=5.93591
			10:[He_Tong_Li_Lu<355000] yes=21,no=22,missing=21,gain=6.31866,cover=1584.79
				21:leaf=-0.00313451,cover=1482.73
				22:leaf=-0.0287458,cover=102.058
	2:[Di_Qu_=Shan_Dong_Fen_Bu<4540.5] yes=5,no=6,missing=5,gain=7.06404,cover=1263.55
		5:[Li_Shi_Zui_Chang_Yu_Qi_Tian_Shu<65290.5] yes=11,no=12,missing=11,gain=9.77294,cover=1010.46
			11:[Sheng_Yu_Ben_Jin_(Yuan<61413.5] yes=23,no=24,missing=23,gain=9.58427,cover=921.644
				23:leaf=0.00529055,cover=908.11
				24:leaf=-0.076569,cover=13.5339
			12:[Di_Qu_=Si_Chuan_Fen_Bu<2397.5] yes=25,no=26,missing=25,gain=8.46019,cover=88.8146
				25:leaf=-0.0239469,cover=16.9196
				26:leaf=0.05341,cover=71.895
		6:[Li_Shi_Zui_Chang_Yu_Qi_Tian_Shu<354794] yes=13,no=14,missing=14,gain=9.37296,cover=253.088
			13:[Di_Qu_=Shan_Xi_Fen_Bu<312.5] yes=27,no=28,missing=27,gain=8.00139,cover=235.484
				27:leaf=0.0264423,cover=35.3155
				28:leaf=-0.0246488,cover=200.169
			14:[Di_Qu_=An_Hui_Fen_Bu<1900] yes=29,no=30,missing=29,gain=4.12429,cover=17.6034
				29:leaf=-0.00848484,cover=6.19306
				30:leaf=0.0901604,cover=11.4103
booster[51]:
0:[He_Tong_Jin_E_(Yuan<6] yes=1,no=2,missing=2,gain=4.60577,cover=2862.2
	1:[Di_Qu_=Shang_Hai_Fen_Bu<-1.5] yes=3,no=4,missing=3,gain=4.8483,cover=2857.44
		3:[Sheng_Yu_Ben_Jin_(Yuan<3723] yes=7,no=8,missing=8,gain=6.27872,cover=1357
			7:[Dao_Qi_Ri<93] yes=13,no=14,missing=14,gain=7.51026,cover=152.434
				13:leaf=0.0512865,cover=11.2591
				14:leaf=-0.0306055,cover=141.175
			8:[Sheng_Yu_Ben_Jin_(Yuan<3868.5] yes=15,no=16,missing=16,gain=7.29248,cover=1204.57
				15:leaf=0.13218,cover=2.9911
				16:leaf=-0.0032252,cover=1201.58
		4:[Dao_Qi_Ri<325.5] yes=9,no=10,missing=10,gain=4.56902,cover=1500.44
			9:[Li_Shi_Zui_Chang_Yu_Qi_Tian_Shu<-169.5] yes=17,no=18,missing=18,gain=8.58362,cover=98.7873
				17:leaf=0.074568,cover=8.23779
				18:leaf=-0.0267541,cover=90.5495
			10:[Dao_Qi_Ri<393] yes=19,no=20,missing=20,gain=7.93773,cover=1401.65
				19:leaf=0.0458409,cover=43.9741
				20:leaf=0.00313443,cover=1357.68
	2:[Di_Qu_=Si_Chuan_Fen_Bu<2100] yes=5,no=6,missing=6,gain=1.50377,cover=4.76042
		5:[Di_Qu_=Yan_Dong_Fen_Bu<6400] yes=11,no=12,missing=12,gain=1.57798,cover=2.205
			11:leaf=0.0484409,cover=1.11386
			12:leaf=-0.0749239,cover=1.09114
		6:leaf=-0.131179,cover=2.55542
booster[52]:
0:[Di_Qu_=Jiang_Xi_Fen_Bu<1.5] yes=1,no=2,missing=1,gain=4.39721,cover=2857.76
	1:[Di_Qu_=An_Hui_Fen_Bu<17279.5] yes=3,no=4,missing=3,gain=6.13567,cover=1181.02
		3:[He_Tong_Jin_E_(Yuan<1.5] yes=7,no=8,missing=8,gain=6.38791,cover=1145.57
			7:[Di_Qu_=Ji_Lin_Fen_Bu<3.5] yes=15,no=16,missing=15,gain=6.73043,cover=507.847
				15:leaf=0.0122564,cover=504.476
				16:leaf=0.137048,cover=3.3708
			8:[Li_Lu_Lei_Xing_=Gu_Ding<55.5] yes=17,no=18,missing=17,gain=6.91827,cover=637.723
				17:leaf=-0.000336824,cover=628.439
				18:leaf=-0.0830238,cover=9.28439
		4:[Di_Qu_=Si_Chuan_Fen_Bu<1020.5] yes=9,no=10,missing=9,gain=8.74945,cover=35.445
			9:[Di_Qu_=Yan_Xi_Fen_Bu<10415.5] yes=19,no=20,missing=19,gain=6.42833,cover=8.90482
				19:leaf=0.0025602,cover=7.7401
				20:leaf=0.197841,cover=1.16473
			10:[Di_Qu_=Si_Chuan_Fen_Bu<59332.5] yes=21,no=22,missing=22,gain=3.20165,cover=26.5402
				21:leaf=-0.0737525,cover=24.9996
				22:leaf=0.0511073,cover=1.54063
	2:[Dao_Qi_Ri<369768] yes=5,no=6,missing=5,gain=8.11603,cover=1676.75
		5:[Di_Qu_=Yan_Xi_Fen_Bu<265.5] yes=11,no=12,missing=12,gain=6.26649,cover=1669.22
			11:[Di_Qu_=Shan_Xi_Fen_Bu<141.5] yes=23,no=24,missing=24,gain=4.97399,cover=48.3213
				23:leaf=0.0601129,cover=3.72511
				24:leaf=-0.0493463,cover=44.5962
			12:[Di_Qu_=Yan_Xi_Fen_Bu<331] yes=25,no=26,missing=26,gain=8.87427,cover=1620.9
				25:leaf=0.053784,cover=25.4506
				26:leaf=-0.00462092,cover=1595.45
		6:[He_Tong_Li_Lu<485000] yes=13,no=14,missing=13,gain=3.77031,cover=7.5236
			13:[Di_Qu_=Yan_Dong_Fen_Bu<14310] yes=27,no=28,missing=28,gain=1.66152,cover=4.06895
				27:leaf=0.184814,cover=2.68012
				28:leaf=0.0295226,cover=1.38883
			14:[Dao_Qi_Ri<484891] yes=29,no=30,missing=30,gain=3.16386,cover=3.45464
				29:leaf=-0.0528988,cover=2.33639
				30:leaf=0.103554,cover=1.11825
booster[53]:
0:[Di_Qu_=Shan_Dong_Fen_Bu<134328] yes=1,no=2,missing=1,gain=4.36016,cover=2854.98
	1:[Di_Qu_=Shan_Dong_Fen_Bu<19093] yes=3,no=4,missing=3,gain=6.0432,cover=2849.12
		3:[Di_Qu_=Shan_Dong_Fen_Bu<18281.5] yes=7,no=8,missing=7,gain=6.09924,cover=2771.16
			7:[Di_Qu_=Yan_Xi_Fen_Bu<953.5] yes=13,no=14,missing=13,gain=5.01109,cover=2766.11
				13:leaf=0.00407308,cover=1289.16
				14:leaf=-0.00445609,cover=1476.95
			8:[Li_Lu_Lei_Xing_=Gu_Ding<28.5] yes=15,no=16,missing=15,gain=3.84872,cover=5.04916
				15:leaf=0.199092,cover=1.41389
				16:leaf=0.0268771,cover=3.63527
		4:[Sheng_Yu_Ben_Jin_(Yuan<439.5] yes=9,no=10,missing=10,gain=10.8549,cover=77.9575
			9:leaf=0.161683,cover=1.92875
			10:[Di_Qu_=An_Hui_Fen_Bu<7025.5] yes=17,no=18,missing=18,gain=3.38448,cover=76.0288
				17:leaf=-0.0131622,cover=37.3519
				18:leaf=-0.0555665,cover=38.6769
	2:[Li_Lu_Lei_Xing_=Gu_Ding<41.5] yes=5,no=6,missing=5,gain=5.01837,cover=5.86645
		5:[Dao_Qi_Ri<40234] yes=11,no=12,missing=12,gain=3.03207,cover=4.57805
			11:[Di_Qu_=An_Hui_Fen_Bu<2701] yes=19,no=20,missing=20,gain=1.93788,cover=2.64366
				19:leaf=0.0323088,cover=1.1153
				20:leaf=0.227405,cover=1.52837
			12:leaf=0.0137862,cover=1.93439
		6:leaf=-0.0625187,cover=1.2884
booster[54]:
0:[He_Tong_Jin_E_(Yuan<6] yes=1,no=2,missing=2,gain=4.0937,cover=2852.62
	1:[Di_Qu_=Ji_Lin_Fen_Bu<0.5] yes=3,no=4,missing=3,gain=4.41147,cover=2847.97
		3:[Dao_Qi_Ri<8367] yes=7,no=8,missing=7,gain=5.12893,cover=2442.08
			7:[Di_Qu_=Bei_Jing_Fen_Bu<0.5] yes=13,no=14,missing=14,gain=10.4729,cover=988.949
				13:leaf=-0.00251137,cover=745.961
				14:leaf=0.021353,cover=242.988
			8:[Dao_Qi_Ri<12450] yes=15,no=16,missing=15,gain=13.9417,cover=1453.13
				15:leaf=-0.0287949,cover=224.922
				16:leaf=-0.00176335,cover=1228.21
		4:[Di_Qu_=Yun_Nan_Fen_Bu<-1.5] yes=9,no=10,missing=9,gain=4.54241,cover=405.89
			9:[Di_Qu_=Yan_Xi_Fen_Bu<18200] yes=17,no=18,missing=17,gain=5.20546,cover=132.841
				17:leaf=0.0272027,cover=130.333
				18:leaf=-0.0969077,cover=2.5083
			10:[He_Tong_Li_Lu<15000] yes=19,no=20,missing=19,gain=4.75147,cover=273.049
				19:leaf=0.0642748,cover=10.6053
				20:leaf=-0.00110757,cover=262.443
	2:[Di_Qu_=Si_Chuan_Fen_Bu<2100] yes=5,no=6,missing=6,gain=1.3327,cover=4.65393
		5:[Di_Qu_=Yan_Dong_Fen_Bu<2750] yes=11,no=12,missing=12,gain=1.81602,cover=2.19481
			11:leaf=0.0567872,cover=1.00049
			12:leaf=-0.0756903,cover=1.19431
		6:leaf=-0.124994,cover=2.45913
booster[55]:
0:[Di_Qu_=Shan_Xi_Fen_Bu<10518.5] yes=1,no=2,missing=2,gain=4.01663,cover=2849.91
	1:[He_Tong_Li_Lu<305000] yes=3,no=4,missing=3,gain=11.9919,cover=1913.74
		3:[Di_Qu_=Yun_Nan_Fen_Bu<-1.5] yes=7,no=8,missing=8,gain=11.1761,cover=1746.93
			7:[Li_Shi_Zui_Chang_Yu_Qi_Tian_Shu<149.5] yes=15,no=16,missing=15,gain=8.28473,cover=91.0665
				15:leaf=-0.0844942,cover=23.6238
				16:leaf=-0.0163692,cover=67.4427
			8:[Di_Qu_=Nan_Jing_Fen_Bu<-1.5] yes=17,no=18,missing=18,gain=7.25751,cover=1655.86
				17:leaf=-0.0887847,cover=7.94881
				18:leaf=0.00151568,cover=1647.92
		4:[Di_Qu_=Yan_Dong_Fen_Bu<12.5] yes=9,no=10,missing=10,gain=13.3293,cover=166.807
			9:leaf=0.179429,cover=2.04122
			10:[Li_Lu_Lei_Xing_=Gu_Ding<62.5] yes=19,no=20,missing=19,gain=8.65161,cover=164.766
				19:leaf=-0.0352467,cover=163.045
				20:leaf=0.145641,cover=1.72055
	2:[Di_Qu_=Shan_Xi_Fen_Bu<10871.5] yes=5,no=6,missing=6,gain=5.6978,cover=936.167
		5:[Di_Qu_=An_Hui_Fen_Bu<5000.5] yes=11,no=12,missing=12,gain=4.15691,cover=4.37107
			11:leaf=-0.0358373,cover=1.13524
			12:[Di_Qu_=Ji_Lin_Fen_Bu<4] yes=21,no=22,missing=22,gain=1.35701,cover=3.23584
				21:leaf=0.198563,cover=1.8023
				22:leaf=0.0398285,cover=1.43353
		6:[Di_Qu_=Shan_Dong_Fen_Bu<191.5] yes=13,no=14,missing=14,gain=6.50377,cover=931.796
			13:[Di_Qu_=Si_Chuan_Fen_Bu<1198] yes=23,no=24,missing=24,gain=3.76924,cover=15.7626
				23:leaf=0.0088464,cover=5.48091
				24:leaf=-0.090748,cover=10.2817
			14:[He_Tong_Li_Lu<25000] yes=25,no=26,missing=25,gain=4.89527,cover=916.033
				25:leaf=0.0252942,cover=106.17
				26:leaf=0.00254707,cover=809.863
booster[56]:
0:[Di_Qu_=Yan_Dong_Fen_Bu<166.5] yes=1,no=2,missing=2,gain=4.06153,cover=2845.9
